been 0.08532974869012833 -0.05377194285392761 -0.07803960144519806 0.19783546030521393 -0.5574958920478821 0.48951876163482666 0.2663968503475189 -0.7542679309844971 -0.49518144130706787 0.36637306213378906 0.28167372941970825 0.5474348664283752 0.1566346436738968 0.03175618126988411 -0.0608891136944294 -0.1728237271308899 0.3119962513446808 0.10993486642837524 -0.3464924693107605 -0.06085210293531418 0.15693214535713196 0.27987298369407654 -0.32362881302833557 -0.223073810338974 -0.07767839729785919 -0.050041262060403824 -0.4901832938194275 0.07842174917459488 -0.24506941437721252 -0.41734403371810913 -0.6244338154792786 0.2637818455696106 0.19069808721542358 -0.5252360701560974 0.20793840289115906 0.06967698782682419 0.402986615896225 0.028625300154089928 -0.21669526398181915 0.3306780457496643 -0.2535526156425476 0.4387964606285095 0.40863513946533203 0.25677576661109924 0.3145492374897003 -0.5306074023246765 -0.3908841013908386 0.15640491247177124 0.40123867988586426 0.3195616602897644 -0.027158107608556747 0.06909766048192978 0.019572488963603973 -0.17156203091144562 0.3594689965248108 0.0550968199968338 -0.24292917549610138 0.347339928150177 0.2205435186624527 0.4486153721809387 0.17027665674686432 0.36669179797172546 -0.23464561998844147 0.27923107147216797 -0.23356804251670837 0.07108668982982635 -0.2360192984342575 0.23770104348659515 -0.32136982679367065 0.022193392738699913 0.4325648844242096 0.3425765633583069 -0.10970677435398102 -0.32552897930145264 0.032029591500759125 0.14974622428417206 0.34315255284309387 0.29580700397491455 -0.012344097718596458 0.18097802996635437 -0.14442306756973267 0.01107717677950859 0.26333650946617126 0.4006524085998535 -0.24278144538402557 -0.02517763152718544 -0.165927454829216 0.06928633153438568 -0.2166130393743515 0.28588899970054626 0.1676405668258667 0.3826180398464203 0.07691603153944016 -0.4066249132156372 0.23429961502552032 -0.47592979669570923 -0.055503230541944504 0.15318021178245544 -0.21697865426540375 0.3213263750076294
year -0.4534147381782532 -0.13520021736621857 0.011024180799722672 0.31567755341529846 0.42474061250686646 0.4709293246269226 -0.06273608654737473 -0.22889915108680725 0.1111350804567337 -0.22243213653564453 0.08128286898136139 -0.004322627559304237 0.05395868420600891 0.12489792704582214 -0.2589157223701477 -0.37346354126930237 0.181748166680336 -0.11563931405544281 -0.1572430431842804 -0.06527058780193329 -0.060587551444768906 0.5661997199058533 0.17474329471588135 -0.13568173348903656 -0.20012114942073822 0.11817052960395813 -0.46042799949645996 -0.05352788791060448 -0.15523183345794678 -0.330875962972641 -0.15585936605930328 -0.34562861919403076 0.37503665685653687 -0.01753542572259903 -0.184994637966156 -0.1378934681415558 -0.0855422168970108 0.08016019314527512 -0.07499489933252335 0.1574864238500595 0.13601987063884735 0.21693873405456543 -0.04219258576631546 0.040266867727041245 -0.26301926374435425 0.12905122339725494 -0.2788166403770447 -0.5009217858314514 0.2774289846420288 -0.3002218008041382 0.26457011699676514 -0.2256205976009369 0.12337727099657059 0.2495041936635971 -0.21713660657405853 0.10760491341352463 0.16485176980495453 0.13868093490600586 -0.11790798604488373 0.18997076153755188 0.018878960981965065 0.07075750827789307 0.030636016279459 0.059490054845809937 -0.22626134753227234 -0.483673095703125 0.07153649628162384 -0.15688109397888184 0.5053380727767944 0.06077393889427185 0.05740678682923317 0.6079902648925781 -0.23165170848369598 0.2641911506652832 -0.12256471067667007 -0.0739256739616394 -0.08990401029586792 -0.02667032741010189 -0.07312192022800446 -0.16592997312545776 -0.054349496960639954 -0.06336966156959534 0.049322254955768585 0.30917349457740784 -0.08801154047250748 -0.1144053265452385 -0.276033490896225 0.06215396896004677 0.05329081416130066 0.23861095309257507 -0.401994913816452 0.012822641059756279 0.047028038650751114 -0.09245317429304123 0.35755598545074463 0.013690558262169361 0.19262561202049255 -0.19661232829093933 0.0715336948633194 0.3750927746295929
about -0.23234619200229645 0.06923478096723557 0.16262690722942352 -0.10146991908550262 0.5170507431030273 0.25623083114624023 0.24355468153953552 0.08249542117118835 -0.49230995774269104 0.035942405462265015 -0.20203080773353577 0.306221067905426 0.17272548377513885 0.5701360702514648 0.0676291361451149 -0.20256948471069336 -0.10560771077871323 0.18481890857219696 0.35619306564331055 -0.3039209544658661 0.42398542165756226 0.4280024766921997 -0.007012311369180679 -0.23840110003948212 0.2099999189376831 0.06541994959115982 -0.3625478148460388 -0.30792689323425293 -0.01945410668849945 0.19930894672870636 0.0896364375948906 -0.0877436101436615 0.1593550443649292 0.013027778826653957 0.18021970987319946 0.14418303966522217 0.3247690200805664 -0.21915413439273834 -0.6565808653831482 -0.17909425497055054 0.20651127398014069 -0.057923637330532074 0.016226254403591156 -0.04573490843176842 0.0234171561896801 0.24985083937644958 -0.440444678068161 -0.31098222732543945 0.37615713477134705 -0.09673543274402618 -0.19315756857395172 -0.0015479637077078223 -0.125580832362175 0.06529764831066132 0.37348446249961853 -0.002598616061732173 0.10282406210899353 -0.34227266907691956 -0.06734044849872589 -0.06674715131521225 -0.11416009813547134 -0.10056187957525253 0.11217797547578812 -0.026043402031064034 -0.15711010992527008 0.058419208973646164 0.21969442069530487 -0.14323677122592926 0.14186015725135803 0.1494339555501938 0.18735839426517487 0.40616023540496826 0.15713061392307281 -0.12452352792024612 -0.05858184024691582 0.44735443592071533 -0.023506229743361473 -0.006443357560783625 0.13491472601890564 -0.1273515224456787 0.06943227350711823 0.030566778033971786 -0.24628177285194397 0.0370367132127285 0.2176985889673233 0.3236338496208191 0.35361209511756897 0.27962055802345276 0.08352451771497726 0.25248247385025024 0.03060508705675602 0.07261042296886444 0.21087470650672913 0.030372323468327522 -0.149081289768219 -0.6367377638816833 -0.1132168397307396 -0.026341184973716736 0.49524059891700745 0.03733479231595993
your -0.07146093249320984 0.3330954909324646 -0.30674615502357483 0.23742961883544922 0.32390567660331726 0.027706099674105644 -0.1895008236169815 -0.24888594448566437 -0.07861264050006866 0.011451217345893383 4.141756216995418E-4 0.1506180763244629 6.403392762877047E-4 -0.009045783430337906 -0.11374817788600922 -0.1596621721982956 -0.2008795291185379 0.12158768624067307 -0.20002935826778412 0.04046132043004036 0.020317893475294113 0.159598246216774 0.04866239055991173 -0.13857918977737427 0.3176569938659668 0.21235492825508118 0.35016679763793945 -0.1493433564901352 0.07625135779380798 0.43752041459083557 -0.03759614750742912 0.07404929399490356 0.3780069649219513 -0.33716917037963867 0.4508010447025299 0.11680710315704346 0.354397714138031 -0.011043344624340534 0.12556706368923187 -0.1606530398130417 0.33494362235069275 -0.07456749677658081 -0.07562680542469025 -0.05330369994044304 0.19038721919059753 0.2037792205810547 -0.7169426679611206 0.18097023665905 -0.21734187006950378 -0.4158444106578827 -0.08858450502157211 -0.03665997460484505 -0.5174870491027832 0.02249525487422943 0.5257909297943115 -0.1636635810136795 -0.03297017514705658 0.23942598700523376 0.2017059028148651 0.007306969724595547 0.4270101487636566 -0.20124155282974243 -0.3033837378025055 0.06671462208032608 0.3149379789829254 -0.3770928978919983 -0.15714065730571747 -0.3641355633735657 -0.21691331267356873 -0.015549910254776478 -0.11372355371713638 0.37469378113746643 -0.0704023689031601 0.2449861764907837 0.04773001745343208 0.056299395859241486 -0.24101242423057556 0.22363296151161194 0.1856723427772522 -0.09191685169935226 0.09467451274394989 -0.24240754544734955 -0.09974275529384613 -0.08982481807470322 0.0458398163318634 0.25987502932548523 0.19931937754154205 0.520121693611145 0.2733626961708069 -0.06905310600996017 -0.15092405676841736 -0.4556295573711395 -0.005285404622554779 -0.2220136970281601 -0.2280670553445816 0.08595594018697739 -0.1447986215353012 -0.3518039882183075 0.04686278849840164 -0.02273488976061344
without -0.26133257150650024 -0.0705699548125267 0.08655331283807755 0.03545956313610077 0.30458304286003113 0.11302581429481506 -0.30409136414527893 -0.294226735830307 -0.20955856144428253 0.2974647879600525 -0.016236543655395508 0.022866617888212204 0.2835979461669922 0.0789572224020958 -0.0216970331966877 0.0048677800223231316 0.04350310564041138 0.07819444686174393 -0.05556722730398178 -0.2608761191368103 -0.24750660359859467 0.12100504338741302 -0.2454705834388733 0.0070576658472418785 -0.06956493854522705 0.0034949947148561478 -0.07326560467481613 -0.1966412365436554 -0.18280848860740662 -0.09122703224420547 -0.12311612814664841 0.20778226852416992 0.10848531872034073 0.2472408413887024 0.10225476324558258 0.1161889061331749 -0.03560582920908928 -0.21743890643119812 0.03358734771609306 -0.0648856908082962 -0.10368241369724274 0.05840525031089783 -0.1592046171426773 0.03740837424993515 -0.12419222295284271 0.12747646868228912 0.009074065834283829 -0.040138158947229385 0.0715249702334404 0.12080977112054825 -0.021645210683345795 -0.23459678888320923 0.0023916144855320454 0.04284760355949402 0.42685237526893616 -0.55418860912323 0.19263197481632233 -0.11838112771511078 0.24067141115665436 -0.017777899280190468 -0.12272179871797562 -0.010763746686279774 -0.022543396800756454 0.11870549619197845 -0.12501175701618195 -0.24327492713928223 -0.012480058707296848 -0.11225464195013046 0.1394481360912323 0.11641725897789001 -0.09904655069112778 0.2989059388637543 0.053987354040145874 0.1109003871679306 -0.054373644292354584 0.2155117690563202 -0.0282162893563509 -0.3645392656326294 0.2586585581302643 -0.19133689999580383 0.15491612255573273 -0.348367840051651 -0.09358594566583633 0.0032192787621170282 -0.03807741403579712 0.4697425365447998 0.020927831530570984 0.14698226749897003 -0.05304395779967308 -0.010499449446797371 -0.12987956404685974 0.030081432312726974 0.02129301056265831 -0.2179984599351883 -0.2080092579126358 -0.19218100607395172 -0.15604543685913086 0.05067536607384682 0.17051586508750916 -0.1044406145811081
these -0.6704427003860474 -0.03600134700536728 -0.30958276987075806 0.219576895236969 0.17473362386226654 0.5377210378646851 -0.3890708088874817 -0.13294461369514465 0.10722324252128601 -0.0662604346871376 -0.14294083416461945 0.3132687211036682 -0.21643629670143127 0.11282011866569519 -0.15213680267333984 -0.08650857955217361 -0.3429386019706726 0.1676371693611145 0.36003243923187256 -0.17199110984802246 0.4874841868877411 0.038348425179719925 -0.27235838770866394 -0.19841688871383667 0.33625978231430054 0.13132114708423615 -0.1021871417760849 -0.014431795105338097 -0.35496634244918823 -0.0627141147851944 -0.4755835235118866 0.22439078986644745 -0.0959867388010025 -0.4873836040496826 -0.15919995307922363 0.1064901053905487 -0.3779430389404297 -0.30254802107810974 -0.18795061111450195 -0.040208376944065094 0.2548820972442627 -0.06234890595078468 -0.10910938680171967 -0.012769878841936588 -0.05139125883579254 0.23505814373493195 0.0013094949536025524 0.4557347595691681 0.18981735408306122 -0.2602623999118805 -0.323535680770874 0.05022823065519333 -0.12316407263278961 -0.09268687665462494 0.016662700101733208 -0.20085856318473816 0.23479560017585754 0.13218827545642853 -0.14203740656375885 0.03091062791645527 -0.2195156216621399 -0.13272196054458618 0.014252218417823315 -0.15122763812541962 -0.4237067997455597 0.013391520828008652 0.13695751130580902 0.32432833313941956 -0.03381114453077316 0.45030468702316284 -0.1285504847764969 -0.43761083483695984 -0.10362626612186432 0.08901676535606384 0.26729777455329895 -0.15261149406433105 0.20405402779579163 -0.25201019644737244 0.13394472002983093 -0.39079612493515015 -0.013407262042164803 0.08582504093647003 0.11411593854427338 0.1829189956188202 0.17531459033489227 0.5890514254570007 0.3342723548412323 0.08196710050106049 0.006048127077519894 -0.07729697972536087 0.3294936716556549 0.26198187470436096 0.16734467446804047 0.2662021815776825 6.38284720480442E-4 -0.12452837079763412 0.08262327313423157 -0.26075413823127747 0.20042213797569275 -0.031610455363988876
companies -0.38596677780151367 0.10382037609815598 0.10201437026262283 0.2088591605424881 -0.03869302198290825 0.36115238070487976 -0.42173561453819275 -0.011424265801906586 0.07870537787675858 -0.227864071726799 -0.057072028517723083 0.04866569861769676 -0.13091810047626495 0.015230383723974228 0.03441464155912399 -0.12462098896503448 -0.03327811136841774 0.043839652091264725 0.0037149980198591948 -0.024188589304685593 0.10845746845006943 0.08155731856822968 -0.25176090002059937 -0.06061198562383652 0.007554478943347931 -0.06423066556453705 -0.07437688857316971 -0.20783944427967072 -0.19196820259094238 -0.13428056240081787 -0.2743314802646637 0.04431115835905075 0.24853286147117615 -0.21999220550060272 -0.06461182236671448 0.15697060525417328 -0.28613293170928955 -0.10855890065431595 -0.1386972814798355 0.04804655909538269 -0.01089383102953434 0.049275971949100494 -0.16487222909927368 0.02231178991496563 -0.19813962280750275 0.1267109215259552 -0.013239048421382904 0.1222342997789383 0.11211435496807098 0.061084359884262085 -0.10740965604782104 -0.04149871692061424 -0.037073615938425064 0.1253729909658432 0.020130522549152374 -0.1785791665315628 0.09259916096925735 -0.0017238506115972996 0.014525005593895912 -0.02795613557100296 -0.12296044826507568 0.021037723869085312 -0.07835550606250763 -0.1299363225698471 -0.1270999014377594 -0.029722867533564568 -0.025963034480810165 0.22944605350494385 -0.12526963651180267 0.36212068796157837 0.07719855010509491 -0.17082084715366364 -0.04462054744362831 0.1694926619529724 0.1815747618675232 -0.1285904496908188 -0.09140539914369583 -0.20280525088310242 0.022673629224300385 -0.08993484824895859 -0.015847766771912575 -0.16026096045970917 -0.01459237840026617 0.08396688103675842 0.04099129140377045 0.05543598532676697 -0.07195493578910828 0.011520562693476677 0.14219433069229126 0.062377672642469406 0.041713863611221313 0.1555071622133255 0.005331795662641525 0.0018920627189800143 0.1876077950000763 -0.13017256557941437 -0.023012787103652954 -0.07262073457241058 0.21004463732242584 0.12074806541204453
music -0.08818037807941437 0.038563378155231476 0.12178867310285568 0.18372155725955963 0.03125645965337753 0.3053302466869354 0.04964610934257507 -0.10891851782798767 -0.10471653193235397 -0.3134484887123108 0.05183234438300133 0.2724587023258209 -0.08515560626983643 0.23743537068367004 -0.1406354010105133 0.08233319222927094 0.06022849306464195 0.2570497989654541 0.07512208074331284 -0.3396878242492676 0.03449461981654167 0.24931026995182037 0.15473775565624237 0.04418329522013664 -0.13031314313411713 -0.06639277935028076 0.1567622572183609 -0.13027924299240112 -0.04122183844447136 -0.3474392592906952 -0.20464783906936646 0.0701933354139328 0.17925216257572174 -0.18506701290607452 -0.013256702572107315 0.2699323296546936 0.2045755237340927 -0.15000203251838684 -0.1699545681476593 0.17922846972942352 0.19089069962501526 0.13979455828666687 -0.35452982783317566 -0.1389622539281845 0.34421759843826294 0.11720984429121017 -0.2578010559082031 -0.0825328603386879 -0.026552876457571983 0.008900007233023643 -0.08140501379966736 -0.07238629460334778 -0.11004496365785599 0.022551853209733963 0.005672790575772524 -0.026411721482872963 0.20095773041248322 -0.15609967708587646 -0.06260377913713455 -0.09415686875581741 -0.18688538670539856 0.3476826250553131 -0.05377667024731636 -0.04547770321369171 -0.25038108229637146 0.11027874797582626 0.18213407695293427 0.061019644141197205 -0.07098022103309631 -0.11995258927345276 0.278837651014328 -0.04924679920077324 0.03338528051972389 0.2830858528614044 -0.15319019556045532 0.035408128052949905 -0.10782603174448013 0.06381316483020782 0.08013582974672318 0.03851807489991188 -0.04720569774508476 -0.07194773107767105 -0.08437082171440125 0.3032102882862091 0.1657414734363556 -0.08825497329235077 0.09931828826665878 0.15234577655792236 0.23227709531784058 0.13262557983398438 -0.0934484675526619 -0.04392837733030319 0.04401591420173645 0.06431306898593903 0.13545337319374084 0.14728784561157227 0.0023919513914734125 0.013154322281479836 0.19765301048755646 -0.024832898750901222
would 0.16629554331302643 -0.0649319663643837 -0.11245878785848618 0.20047399401664734 -0.22298814356327057 0.25081828236579895 -0.016042014583945274 -0.2776433527469635 -0.26305723190307617 -0.08734224736690521 -0.3167414963245392 -0.0662161260843277 0.2019103318452835 0.25657519698143005 -0.34679940342903137 -0.17654338479042053 -0.010800893418490887 -0.31566694378852844 -0.19597947597503662 -0.33251187205314636 -0.27952542901039124 -0.07811327278614044 0.0731787458062172 -0.3446272909641266 0.06169937923550606 0.19566424190998077 -0.048158470541238785 0.16212190687656403 -0.013371558859944344 0.04548487067222595 0.18312734365463257 0.2897370159626007 0.23485557734966278 -0.0142900999635458 -0.2008591741323471 0.15731102228164673 -0.18225815892219543 -0.10308501869440079 -0.13250206410884857 0.39264434576034546 -0.25329768657684326 0.3680664598941803 -0.18145112693309784 0.37968653440475464 6.923926994204521E-4 0.11639615893363953 -0.2810899615287781 0.14782343804836273 -0.047823794186115265 0.2549363076686859 0.0017654214752838016 -0.08294767141342163 -0.06107349693775177 0.20188401639461517 0.38500508666038513 -0.11447697132825851 0.21374671161174774 -0.21336959302425385 -0.2127820998430252 -0.009666713885962963 -0.3973061144351959 0.3510666787624359 0.17597447335720062 -0.07138819247484207 -0.26535478234291077 -0.004906338173896074 0.4203406870365143 -0.4384002983570099 -0.07620836794376373 0.1451532542705536 -0.21646393835544586 0.13419051468372345 0.0353500060737133 0.0692063495516777 -0.019594212993979454 0.09127252548933029 -0.004638180136680603 -0.02787538431584835 0.23731112480163574 -0.27332204580307007 0.4599854350090027 -0.012799419462680817 -0.005997523665428162 -0.04483187571167946 0.21539568901062012 0.4023863971233368 -0.15362322330474854 0.1116722822189331 -0.08329418301582336 0.16643860936164856 0.2436802238225937 0.32107216119766235 0.2788642346858978 0.07511437684297562 -0.21480485796928406 -0.014816788956522942 0.23161423206329346 -0.24774737656116486 -0.20670825242996216 0.3968096971511841
because -0.006947863847017288 0.015929007902741432 0.023210633546113968 0.011805227026343346 0.17505896091461182 0.3001563847064972 -0.26906344294548035 -0.07550013810396194 -0.09902501851320267 -0.05418290197849274 -0.028943492099642754 0.06335949897766113 0.07815009355545044 0.1478128582239151 0.1392500400543213 -0.15823478996753693 0.03375249356031418 0.15605591237545013 0.008734018541872501 -0.34692198038101196 -0.004836658947169781 0.21852180361747742 0.12629547715187073 -0.4663069546222687 0.0620991550385952 0.16531705856323242 -0.13333240151405334 0.060216356068849564 -0.1014661118388176 -0.16711430251598358 -0.24164006114006042 0.3138841688632965 0.3169631361961365 -0.18691855669021606 0.298121839761734 0.37843793630599976 -0.06304613500833511 -0.09699077904224396 0.11419320106506348 0.0733453780412674 0.13744193315505981 0.4569810628890991 -0.3339731693267822 0.06564231961965561 0.13471589982509613 0.01535708922892809 -0.20014086365699768 -0.10732382535934448 -0.003889484563842416 -0.011829163879156113 -0.12149869650602341 -0.0442856028676033 -0.2256576120853424 0.023454612120985985 0.203823059797287 -0.22743874788284302 0.18301989138126373 -0.20913250744342804 0.3202928602695465 -0.173298180103302 -0.2613920569419861 0.11772061884403229 0.1973993480205536 -0.2420835793018341 0.06523026525974274 0.17737895250320435 0.16687998175621033 -0.0016203001141548157 -0.09076819568872452 0.19111695885658264 -0.08684451133012772 0.16794715821743011 0.015027016401290894 -0.04927549883723259 -0.2227310836315155 -0.1283291131258011 0.11241265386343002 0.04634637013077736 -3.920040326192975E-4 0.0019830921664834023 0.05751171335577965 -0.15012866258621216 -0.1518593430519104 0.0703684389591217 0.01739300787448883 0.21112993359565735 -0.05257798731327057 0.26565036177635193 0.044326458126306534 0.2500360906124115 -0.2247367650270462 0.15094587206840515 0.17559687793254852 -0.17849071323871613 -0.008819129317998886 -0.2465389370918274 -0.13132745027542114 0.00947381928563118 0.24288101494312286 0.2993922531604767
state -0.3438851833343506 -0.14814789593219757 0.05051052197813988 0.2958798110485077 0.053571492433547974 0.3390166461467743 -0.06728427112102509 -0.18223638832569122 -0.07662014663219452 -0.09328935295343399 -0.15744169056415558 0.28727811574935913 -0.2238088697195053 0.12443896383047104 -0.1922035962343216 -0.2696869373321533 0.10759969800710678 0.3708503246307373 0.28587183356285095 0.0117396404966712 -0.10879315435886383 0.3387686014175415 -0.1692650318145752 -0.10295369476079941 -0.022505026310682297 0.096230648458004 0.020322779193520546 -0.1639009416103363 -0.12249016016721725 -0.19556687772274017 -0.3476085960865021 -0.02289290726184845 0.4219464063644409 -0.15477463603019714 -0.30144479870796204 0.27469512820243835 0.1126132681965828 -0.05412067845463753 -0.015548762865364552 -0.029778894037008286 0.03386453539133072 0.03160562738776207 -0.40247809886932373 -0.06649579852819443 0.07056046277284622 0.35738077759742737 -0.09377728402614594 0.13434705138206482 -0.11122709512710571 -0.1486145406961441 -0.07572433352470398 0.03178302198648453 0.02405552938580513 -0.007853277027606964 0.16352500021457672 -0.0790654718875885 -0.05542372167110443 -0.0648902878165245 -0.11465395987033844 -0.013946771621704102 -0.09578776359558105 0.05175322666764259 -0.059791553765535355 0.16969965398311615 -0.23758698999881744 0.1544477343559265 0.1925681084394455 0.04462502896785736 0.09710631519556046 -0.12075796723365784 0.09309538453817368 0.04341763257980347 -0.1527525782585144 0.30156171321868896 -0.06885051727294922 -0.07831116765737534 0.0012848272453993559 -0.01694674789905548 0.08245162665843964 0.04942654073238373 -0.2847805321216583 -0.03986503928899765 -0.1314392387866974 0.26796796917915344 0.13262031972408295 -0.026573168113827705 0.16902819275856018 0.07445481419563293 0.21198375523090363 0.06296957284212112 -0.021121246740221977 0.012767869047820568 0.10879632085561752 0.16108794510364532 0.06767113506793976 0.16070586442947388 0.16989657282829285 -0.046073831617832184 0.25303441286087036 -0.18055447936058044
they -0.29687267541885376 0.17312948405742645 0.04348498955368996 0.43515053391456604 0.10822224617004395 0.19518452882766724 -0.260646253824234 -0.056783705949783325 0.21820281445980072 -0.2183137685060501 -0.6222330331802368 -0.21488504111766815 -0.22334860265254974 0.006638291757553816 -0.3027973771095276 -0.1491069346666336 -0.04305638000369072 -0.023137614130973816 -0.12315773218870163 -0.0567939430475235 0.22335341572761536 0.16234196722507477 -0.06669667363166809 -0.33853796124458313 0.37531778216362 0.2398553341627121 0.24394530057907104 -0.06915457546710968 -0.056983739137649536 0.10814939439296722 0.0373467355966568 -0.13996821641921997 -0.019822582602500916 -0.22619730234146118 -0.03550038859248161 -0.1646939069032669 -0.5001901388168335 -0.24002498388290405 -0.05726071447134018 0.47387319803237915 -0.22449779510498047 -0.1831180602312088 -0.07408615946769714 0.037210430949926376 -0.22648316621780396 -0.07422187924385071 -0.11667178571224213 0.0073658800683915615 0.019238833338022232 -0.016500921919941902 -0.3606758415699005 -0.164852574467659 0.08099640160799026 -0.09404420852661133 0.36432111263275146 -0.2189420908689499 0.164072185754776 -0.1486322283744812 0.028087522834539413 -0.13410429656505585 -0.034754518419504166 -0.22092042863368988 0.022756852209568024 -0.10556265711784363 -0.12358000874519348 0.0012533101253211498 0.03710029274225235 -0.36747807264328003 -0.29488706588745117 0.2409491389989853 0.10551541298627853 0.20646266639232635 0.07290079444646835 0.06240258738398552 -0.18210136890411377 0.10569920390844345 0.19282357394695282 -0.13632498681545258 0.25147032737731934 -0.28491538763046265 0.09730003774166107 0.05363939329981804 -0.006978712510317564 -0.09650242328643799 0.19708062708377838 0.055262982845306396 0.02877599373459816 0.2620958387851715 0.17123644053936005 0.11516228318214417 0.06636881083250046 0.33342844247817993 0.31591907143592834 -0.1044936552643776 0.06681565940380096 -0.19414599239826202 0.07495836913585663 -0.27722612023353577 0.46449974179267883 0.3492119312286377
you -0.27761876583099365 0.2861939072608948 0.06915035098791122 0.4833417534828186 0.12495814263820648 0.2682182490825653 -0.30610716342926025 -0.20472699403762817 0.23683865368366241 0.04537060111761093 -0.3343246579170227 -0.1422717273235321 -0.0747104063630104 0.24247680604457855 -0.0030159405432641506 0.02759617753326893 0.0834755077958107 0.1356877088546753 0.05339518189430237 -0.3496837317943573 0.10603969544172287 0.09953901916742325 -0.11648345738649368 -0.2580845057964325 0.2220325618982315 0.012878669425845146 0.19684600830078125 -0.15465238690376282 -0.06265506893396378 0.17448270320892334 -0.00632824981585145 0.5344007015228271 0.2664172947406769 -0.33135586977005005 -0.01461371872574091 -0.060031477361917496 -0.2781869173049927 0.08270449191331863 0.04532814025878906 0.46690455079078674 0.17455188930034637 -0.1529216319322586 0.0028282031416893005 0.056358981877565384 -0.22586022317409515 0.01410438772290945 -0.20482467114925385 0.10033407062292099 -0.05541473999619484 -0.03567041456699371 -0.25469473004341125 -0.23639951646327972 -0.009453081525862217 0.14075283706188202 -0.0033835824579000473 -0.04780351370573044 0.1350347250699997 0.11562234908342361 -0.14554056525230408 0.10694538056850433 0.07560262829065323 -0.07692922651767731 0.027020728215575218 -0.036632560193538666 -0.2997511923313141 0.04497671499848366 -0.15466859936714172 -0.18369880318641663 -0.16501997411251068 0.4416506886482239 0.11823602765798569 0.296347975730896 0.35028618574142456 0.07096471637487411 -0.10324573516845703 0.03904516249895096 -0.03829210251569748 0.008488992229104042 0.20112241804599762 -0.039195407181978226 -0.2146732658147812 -0.2912815511226654 -0.4213215112686157 -0.21058699488639832 -0.13217706978321075 -0.07273577153682709 -0.09617707133293152 0.17893105745315552 -0.029189933091402054 0.13436070084571838 0.1972711831331253 0.08422965556383133 0.23565134406089783 0.03160629794001579 -0.08512680232524872 -0.20783300697803497 0.09240187704563141 -0.20163019001483917 0.31180161237716675 0.48508843779563904
$ -0.016050497069954872 0.001851988839916885 -0.0068153031170368195 0.07091476023197174 -0.004672663286328316 0.058145176619291306 -0.0598599798977375 -0.07304329425096512 0.02018025889992714 -0.06461139023303986 0.011833790689706802 0.038742683827877045 -0.02597089670598507 0.011747179552912712 -0.05373746156692505 -0.049902938306331635 0.0034175976179540157 -0.01061447523534298 0.0046288371086120605 -0.0775117427110672 -0.014757023192942142 0.027342794463038445 -0.02935102768242359 -0.019972924143075943 0.030276406556367874 0.024105671793222427 0.003695497289299965 -0.01900174468755722 -0.017323054373264313 -0.017740141600370407 -0.03727545216679573 0.01623884029686451 0.06653649359941483 -0.02863442711532116 -0.03683594614267349 0.05036697909235954 -0.0016526805702596903 -0.02616964280605316 0.008658758364617825 0.005579284392297268 0.013432573527097702 0.04336611554026604 -0.03472619503736496 0.026721328496932983 -0.007994534447789192 0.05467553809285164 -0.08003157377243042 0.02245677076280117 0.016485949978232384 0.011158114299178123 -0.021684207022190094 -0.019084038212895393 -0.045047782361507416 -0.01268045138567686 0.07401563972234726 -0.037960853427648544 0.07092202454805374 -0.0032337787561118603 0.032920029014348984 0.027452021837234497 -0.0420011505484581 0.01322265062481165 -0.02442546933889389 0.003947293385863304 -0.006439496297389269 -0.010795371606945992 0.045577313750982285 -0.04433845728635788 -0.01319984719157219 0.015308381989598274 0.018626974895596504 0.03228778764605522 -0.02047743648290634 0.007902989163994789 -0.016644874587655067 -0.013452844694256783 -0.027660289779305458 0.013066574931144714 0.007886884734034538 0.004282833077013493 -0.03103826940059662 -0.04209680110216141 -0.021764064207673073 0.015652792528271675 -0.0019041928462684155 0.03109564259648323 0.003363545285537839 0.039001982659101486 0.04632784426212311 0.03217565268278122 -0.03750615939497948 0.010161779820919037 0.010413261130452156 -0.005574233829975128 -0.04101108759641647 -0.0544174425303936 -0.0168373491615057 0.01689949259161949 0.015679726377129555 0.0055786618031561375
going -0.005670397542417049 0.3126729428768158 -0.007388772908598185 0.11640191823244095 -0.08365245163440704 0.3164943754673004 -0.05565353110432625 -0.18119676411151886 0.06823700666427612 -0.12700459361076355 0.19311831891536713 0.09764795005321503 -0.09916014969348907 -0.01478029228746891 -0.2574489414691925 -0.06715229898691177 -0.13823169469833374 -0.02973833493888378 -0.2733546495437622 -0.5224704742431641 0.35310375690460205 -0.12534064054489136 0.4706031382083893 -0.5440680980682373 0.39510345458984375 0.09680306911468506 -0.25055673718452454 0.06447853147983551 -0.024062002077698708 -0.05605827644467354 0.05069712549448013 0.21551595628261566 0.31716111302375793 -0.3300821781158447 -0.10890831798315048 0.021549994125962257 -0.03937450423836708 0.15932218730449677 0.1303831785917282 -0.13185815513134003 -0.17111219465732574 0.12012510746717453 -0.48472127318382263 -0.14926889538764954 0.06051100045442581 0.0524466410279274 -0.26017123460769653 0.2497495710849762 0.034139011055231094 -0.11399681121110916 0.04512057080864906 0.15097005665302277 0.04092111811041832 0.46027061343193054 0.42063093185424805 -0.45125502347946167 0.6464254260063171 0.3135848045349121 0.030205752700567245 0.14010386168956757 -0.35374313592910767 -0.09035922586917877 -0.11493146419525146 -0.2510729730129242 0.10196378082036972 -0.15810784697532654 -0.22877757251262665 -0.20428384840488434 0.200021892786026 0.3348183035850525 -0.11772585660219193 0.20039165019989014 -0.4329807162284851 -0.11341074109077454 0.056395478546619415 0.0424492247402668 -0.1974503993988037 0.45225608348846436 0.16711919009685516 0.2560390830039978 0.16787968575954437 -0.21684840321540833 0.004755241796374321 -0.23517262935638428 -0.0662437379360199 0.17076562345027924 0.1299206167459488 0.28733858466148376 0.4821258783340454 0.05448514223098755 -0.19082637131214142 0.15784703195095062 -0.05313579738140106 0.2675594389438629 -0.3818591833114624 -0.09886634349822998 -0.10152161866426468 -0.5562379956245422 0.33954253792762756 0.3503950536251068
old -0.023791715502738953 0.17364679276943207 -0.12931986153125763 0.0823732540011406 -0.46302831172943115 0.39113667607307434 0.016274377703666687 -0.2117200791835785 -0.05327469855546951 -0.025538677349686623 -0.1619838923215866 0.45220446586608887 -0.2185225933790207 0.09036150574684143 -0.1505434662103653 -0.009694885462522507 0.11835107952356339 0.30115365982055664 -0.024600164964795113 -0.46630915999412537 0.0678364485502243 0.2345566600561142 0.05873249098658562 -0.16918420791625977 -0.062205374240875244 -0.016814325004816055 -0.37961211800575256 -0.046242665499448776 -0.10461016744375229 -0.057945191860198975 -0.19645123183727264 -0.05163208022713661 0.19386453926563263 -0.4660094380378723 -0.19631661474704742 0.14277102053165436 -0.12493801862001419 -0.00874040462076664 -0.28696393966674805 -0.24709394574165344 -0.02289223112165928 0.20443613827228546 -0.38751843571662903 0.06838333606719971 0.2397896647453308 0.08670951426029205 -0.12450739741325378 0.38747474551200867 -0.05006127804517746 -0.2962684631347656 0.11043640971183777 0.08540530502796173 0.06599307060241699 3.553951974026859E-4 0.21734851598739624 -0.05428082495927811 0.09726306051015854 -0.0692497044801712 -0.3445062041282654 0.14089635014533997 -0.493202269077301 -0.0030497098341584206 -0.19151358306407928 -0.10304982960224152 0.05185381695628166 0.2014746069908142 0.016507085412740707 0.24285119771957397 0.10295088589191437 -0.13703171908855438 0.016370197758078575 -0.1377795934677124 -0.10898406058549881 -0.09703706204891205 0.3141902983188629 -0.014793910086154938 -0.0987604483962059 0.02200671099126339 -0.14918532967567444 0.19977909326553345 -0.03602547571063042 -0.08031457662582397 -0.22058364748954773 0.04386706277728081 0.02662879042327404 0.34030431509017944 0.1518961638212204 0.05761289596557617 0.1471213400363922 0.07450741529464722 0.2438407987356186 0.2886096239089966 -0.08971517533063889 0.12257169932126999 0.08386910706758499 0.11526462435722351 -0.05334744229912758 -0.35820332169532776 0.2349667102098465 -0.041574738919734955
want -0.2328483909368515 0.22690120339393616 -0.11825493723154068 0.13304296135902405 0.2526780664920807 0.121671661734581 -0.2767740488052368 -0.14233018457889557 -0.08933896571397781 0.08591358363628387 0.008605154231190681 0.14612194895744324 0.35255420207977295 0.10273796319961548 -0.0698159784078598 0.03365234285593033 -0.40044915676116943 -0.13014990091323853 -0.10414209961891174 -0.8340587615966797 -0.37891003489494324 -0.4014613628387451 0.13281480967998505 -0.12835173308849335 0.10684474557638168 0.11915964633226395 0.07453808933496475 0.05644246190786362 0.0025988039560616016 -0.021994760259985924 0.1886032372713089 0.751102089881897 0.48653990030288696 -0.02502436377108097 -0.38824462890625 0.6703258752822876 -0.10315416753292084 0.025103945285081863 -0.014999409206211567 0.14347729086875916 -0.09272662550210953 -0.015281535685062408 -0.0427793450653553 0.02578047104179859 -0.14115320146083832 0.4042529761791229 -0.19445157051086426 0.22902756929397583 0.28681251406669617 0.1433873325586319 -0.24688470363616943 -0.07961388677358627 -0.024284403771162033 -0.05604209750890732 0.08724848181009293 -0.5171906352043152 0.22058825194835663 -0.021041950210928917 0.11313022673130035 -0.12545804679393768 -0.2675260007381439 -0.10172034800052643 -0.03156181424856186 0.001684100367128849 -0.5781399011611938 -0.2707923650741577 0.2088741511106491 -0.2556714415550232 -0.09773501753807068 0.13138335943222046 -0.1857101172208786 0.19812162220478058 -0.03973808512091637 -0.11926859617233276 0.009116672910749912 0.3116164803504944 -0.34408557415008545 0.05358322709798813 0.193995863199234 -0.14901694655418396 0.23565591871738434 -0.11617667973041534 0.02580941841006279 -0.3271622359752655 -0.07421588152647018 0.4089503884315491 -0.050493236631155014 0.23661594092845917 0.2070675641298294 -0.20450568199157715 -0.1707042008638382 0.16524732112884521 0.26980024576187134 -0.1339094638824463 -0.303689181804657 0.015564949251711369 0.11170036345720291 -0.4403742253780365 0.2929673194885254 -0.04783210530877113
night -0.15012499690055847 -0.1454571634531021 0.10426267236471176 0.16024437546730042 0.3243597447872162 0.06366932392120361 -0.18157702684402466 -0.36528170108795166 -0.02145671471953392 -0.3245489299297333 0.10569322109222412 -0.14260554313659668 -0.3932168185710907 0.2364334911108017 -0.47982531785964966 -0.09276144206523895 0.2210928350687027 0.08491702377796173 0.028218569234013557 -0.34185412526130676 -0.24787631630897522 0.4617244303226471 0.2972312867641449 -0.10581912100315094 -0.18664421141147614 -0.2193235605955124 -0.16616953909397125 -0.06204379349946976 -0.18135610222816467 -0.3112260699272156 0.058636099100112915 -0.16234233975410461 0.06849279999732971 -0.10936277359724045 -0.13599497079849243 -0.1803089678287506 -0.1640600711107254 0.27833953499794006 -0.017502151429653168 0.24819384515285492 0.10929107666015625 -0.02078867517411709 -0.2416132688522339 0.17461328208446503 -0.07737723737955093 0.04004354029893875 -0.3360581696033478 -0.43262672424316406 0.1927572339773178 -0.2913416624069214 0.05013298988342285 -0.21885287761688232 0.1672925055027008 -0.06135695055127144 -0.05260951817035675 -0.2672790288925171 0.2585310935974121 -0.17179502546787262 0.0791199579834938 0.04849651828408241 0.3390916585922241 0.08150125294923782 0.2128930687904358 0.002838670741766691 -0.35533449053764343 -0.32099249958992004 0.31734734773635864 -0.15220247209072113 0.23952603340148926 -0.32970792055130005 0.2923908829689026 0.29977890849113464 -0.3794271945953369 0.2023024559020996 -0.4088096022605896 -0.03696739301085472 0.11081770062446594 0.022120695561170578 -0.091792531311512 -0.08621957153081894 -0.14526139199733734 -0.008699711412191391 -0.19016434252262115 0.19399219751358032 -0.0920325443148613 0.0074616181664168835 -0.20875000953674316 0.008013071492314339 0.15189117193222046 0.20296230912208557 -0.3155544698238373 0.06630779802799225 -0.04406755790114403 -0.14118409156799316 0.14879049360752106 0.2128913551568985 0.056141484528779984 0.11914167553186417 0.006772651337087154 0.250345379114151
them -0.30234503746032715 0.07526984810829163 -0.34188607335090637 0.1780557632446289 0.18508990108966827 0.4018271267414093 -0.6847453713417053 -0.28369638323783875 0.2481372207403183 -0.32439759373664856 -0.02184182219207287 -0.044520024210214615 -0.06935103982686996 -0.05022180452942848 0.04571870341897011 -0.32011136412620544 0.1558125913143158 -0.33170121908187866 -0.023403378203511238 -0.13212931156158447 0.13293272256851196 -0.19647885859012604 -0.006972399074584246 -0.169601172208786 0.2174619883298874 -0.07852892577648163 0.065310038626194 0.015118977054953575 -0.04599926993250847 -0.03122071921825409 -0.13191741704940796 0.33324286341667175 7.171302568167448E-4 -0.3749217391014099 -0.19613635540008545 0.33914443850517273 -0.15501539409160614 -0.11658815294504166 -0.14814770221710205 0.33002904057502747 0.10975713282823563 0.28094714879989624 -0.09246063232421875 0.17345857620239258 -0.07847863435745239 -3.078039735555649E-4 -0.14660872519016266 0.19313384592533112 0.12243670225143433 -0.2683890461921692 -0.5031923651695251 -0.08501669764518738 -0.30821794271469116 0.04772719368338585 0.19913849234580994 0.12086479365825653 0.4746031165122986 -0.01545020379126072 0.0819573849439621 0.0630401074886322 -0.058846525847911835 0.2400335818529129 0.08355831354856491 -0.2445850819349289 -0.29316118359565735 -0.2639271020889282 0.023994050920009613 0.054737821221351624 -0.2311892807483673 0.35651329159736633 -0.06461817771196365 -0.153335839509964 -0.07243338227272034 0.13874560594558716 0.008525945246219635 -0.03000430203974247 0.09382019191980362 -0.1309615671634674 0.06395083665847778 -0.14007607102394104 -0.025501929223537445 -0.23271600902080536 0.09413134306669235 -0.011818981729447842 0.1197584941983223 -0.18707866966724396 -0.03884522616863251 0.36023348569869995 -0.03514019772410393 0.25392404198646545 -0.05817730724811554 0.11109879612922668 -0.014320801943540573 -0.23842793703079224 0.11763890832662582 -0.01678471453487873 -0.2653651833534241 -0.16335178911685944 -0.055228445678949356 0.16913433372974396
then 0.03740525245666504 -0.2039748877286911 -0.20235338807106018 0.21897022426128387 0.18886208534240723 -0.014797346666455269 -0.5666816830635071 0.15920190513134003 0.1545582264661789 -0.024787751957774162 -0.07866863906383514 -0.3971264362335205 -0.06639771163463593 0.26017943024635315 -0.25396355986595154 0.12087209522724152 0.12312617897987366 0.12924551963806152 -0.03393524885177612 -0.07192537933588028 0.26568108797073364 0.2920229434967041 0.2993432581424713 -0.10443625599145889 -0.05317964404821396 -0.0014595219399780035 -0.15238985419273376 0.07970010489225388 -0.09643952548503876 -0.06913483142852783 -0.18768572807312012 -0.16714827716350555 0.2996118664741516 -0.2750699818134308 -0.01918628066778183 0.2668844163417816 -0.2725413143634796 0.039693597704172134 -0.01781698316335678 0.07419881224632263 -0.06159493699669838 0.061932675540447235 -0.2787196934223175 -0.06576471030712128 0.16799195110797882 0.21608933806419373 -0.4964735507965088 0.1757189780473709 0.19867751002311707 -0.20887337625026703 -0.13136591017246246 0.005245754960924387 0.44467976689338684 0.25114408135414124 0.38752079010009766 -0.4538514018058777 0.09521765261888504 0.10286015272140503 0.1358112096786499 -0.09654289484024048 0.10576717555522919 0.3670998513698578 0.021295147016644478 -0.2787967920303345 0.14525015652179718 0.2602972090244293 0.33486390113830566 -0.10303948819637299 0.15262454748153687 0.09652600437402725 -0.2889649271965027 0.004803328774869442 -0.04013925418257713 -0.05299988389015198 -0.36418962478637695 0.012071839533746243 0.11207766085863113 0.07853753119707108 -0.057326264679431915 0.24586287140846252 -0.10231617093086243 -0.03283034637570381 -0.15106447041034698 0.3213132321834564 0.29260948300361633 0.3641204833984375 -0.013039755634963512 0.35208433866500854 -0.13283708691596985 0.10260458290576935 -0.27382445335388184 0.22503110766410828 -0.17665418982505798 -0.22715213894844055 -0.1024184376001358 -0.2558614909648895 -0.07618165761232376 -0.008751706220209599 -0.020868154242634773 0.016067447140812874
court -0.2016405165195465 -0.12897591292858124 0.03202379494905472 0.3317025601863861 0.07859905809164047 0.29655659198760986 -0.09133148938417435 -0.3176708519458771 0.06832899153232574 -0.14620621502399445 0.06449002772569656 0.15083613991737366 -0.2169954478740692 -0.01386686135083437 -0.5278002023696899 0.004927561618387699 0.07719142735004425 0.24371162056922913 -0.05554128438234329 -0.31393352150917053 -0.1395881474018097 0.2978372871875763 0.010665208101272583 -0.2855457067489624 0.06568717956542969 0.1360427439212799 0.1040526032447815 -0.08445294201374054 -0.11346425861120224 -0.1700602024793625 -0.24293676018714905 0.015966445207595825 0.3547227084636688 -0.1574086993932724 -0.23682883381843567 0.0728801041841507 -0.10203571617603302 0.03927254676818848 0.09074720740318298 0.09853976219892502 -0.007038431707769632 0.022060636430978775 -0.2590693235397339 0.05942653492093086 0.12096535414457321 0.22339171171188354 -0.2550030052661896 0.10490887612104416 -0.18114714324474335 -0.1432211548089981 0.030945084989070892 -0.12216107547283173 -0.12121481448411942 -0.037363361567258835 0.28108271956443787 -0.2769409120082855 0.2748275697231293 -0.010509219951927662 0.15551236271858215 0.10093636810779572 0.00712963379919529 -0.05677671730518341 -0.11206039786338806 0.014041466638445854 -0.16391661763191223 0.00431238766759634 0.13159246742725372 -0.08282679319381714 -0.033779922872781754 -0.12290925532579422 0.14306657016277313 0.03100663423538208 -0.23818136751651764 0.1753532737493515 -0.26221442222595215 -0.17232215404510498 0.05974002182483673 0.1941659301519394 0.27526775002479553 0.13324157893657684 -0.21335123479366302 -0.17071354389190674 -0.11390135437250137 0.2562556266784668 0.14928221702575684 -0.0421106219291687 0.06384249031543732 0.2749788165092468 0.2825758457183838 0.13462835550308228 -0.01137793529778719 0.005956672132015228 0.04859957471489906 0.06252899020910263 -0.20133903622627258 0.23918892443180084 -0.030895857140421867 -0.038202352821826935 0.20527853071689606 -0.07801329344511032
an 0.16957369446754456 0.0022825661581009626 -0.06038926914334297 0.13741649687290192 0.21839438378810883 0.037838369607925415 -0.1265159398317337 -0.09480761736631393 -0.12954005599021912 0.0050019510090351105 -0.018268734216690063 0.10833118855953217 -0.09712502360343933 0.11552727222442627 -0.2282383143901825 -0.07505139708518982 0.06464536488056183 0.24900512397289276 -0.20165547728538513 -0.021053951233625412 -0.09565173834562302 -0.027627522125840187 0.19015264511108398 -0.3687371611595154 0.20296159386634827 -0.042667776346206665 -0.0500389002263546 0.02295680344104767 -0.02914273925125599 -0.11953110992908478 -0.1919523924589157 0.1949615627527237 0.13668887317180634 0.038022201508283615 -0.06885097175836563 -0.07400478422641754 0.03855355083942413 0.16554197669029236 -0.03285735473036766 0.03209362551569939 0.10733597725629807 0.0761156976222992 -0.20464570820331573 0.04199863597750664 0.07024446874856949 0.2737429738044739 -0.17618881165981293 -0.0951649621129036 -0.22226712107658386 -0.17496736347675323 0.22131533920764923 0.008099942468106747 0.1137097105383873 0.07719775289297104 0.17803482711315155 -0.21106977760791779 0.13861630856990814 -0.020093834027647972 -0.12524741888046265 0.15438035130500793 0.007439960725605488 -0.1153520941734314 -0.12185569107532501 -0.017530085518956184 0.20312923192977905 0.014725889079272747 0.21216224133968353 -0.14309167861938477 0.08053362369537354 -0.179168701171875 0.0466093011200428 0.12176947295665741 -0.04036066308617592 -0.07478951662778854 -0.13739793002605438 0.030095385387539864 -0.01384106744080782 -0.03747459501028061 0.18631720542907715 0.2764228284358978 -0.23543989658355713 -0.31395426392555237 -0.19800569117069244 0.05473030358552933 -0.03741859644651413 0.14665624499320984 0.23077934980392456 0.18443350493907928 0.11454525589942932 0.07215182483196259 -0.3636478781700134 -0.243534117937088 -0.11112502962350845 -0.058429911732673645 -0.14941337704658508 0.19735313951969147 -0.1437382847070694 -0.19250382483005524 0.1434508115053177 0.18558460474014282
- -0.10316229611635208 -0.011633504182100296 -0.04156281799077988 0.15240417420864105 0.12207772582769394 0.23068197071552277 -0.16302067041397095 -0.24660851061344147 -0.03094056434929371 -0.08224067836999893 -0.06650539487600327 0.16232790052890778 -0.07884269207715988 0.1459513157606125 -0.13076741993427277 -0.058288656175136566 0.07494936883449554 0.0807836577296257 -0.04669933393597603 -0.2232971489429474 -0.013397335074841976 0.28942421078681946 0.036173343658447266 -0.21064938604831696 0.006388422567397356 0.07739503681659698 -0.15945376455783844 -0.10924339294433594 -0.11212043464183807 -0.15349650382995605 -0.26986628770828247 0.05784668028354645 0.1176055446267128 -0.14270491898059845 -0.03946830332279205 0.18094995617866516 -0.07424551993608475 -0.07417619973421097 -0.029763836413621902 0.011319642886519432 0.12775655090808868 0.11411929130554199 -0.160594642162323 -0.04652465879917145 0.031842637807130814 0.1343512237071991 -0.2158305048942566 0.1255016028881073 0.11333104223012924 -0.2305368185043335 0.0055261943489313126 0.029250923544168472 0.004910656251013279 0.03729866445064545 0.16283033788204193 -0.06500528752803802 0.17334210872650146 0.08774235099554062 0.06009988486766815 -0.02640654519200325 -0.070830799639225 0.08012821525335312 0.0648782029747963 -0.09120386093854904 -0.05373561754822731 -0.026295630261301994 0.17976009845733643 -0.0160803385078907 0.06297601759433746 -0.014035019092261791 -0.011880019679665565 0.1745624840259552 0.006932646036148071 0.010911192744970322 -0.14623312652111053 -0.039143580943346024 0.04162014275789261 0.09690985083580017 0.053766001015901566 0.11256717890501022 -0.024150876328349113 -0.09366560727357864 -0.19009260833263397 0.06773940473794937 0.03675643354654312 0.19857290387153625 0.07263768464326859 0.13934829831123352 -0.004190822131931782 0.11953085660934448 -0.053571440279483795 0.0699334368109703 0.009471890516579151 -0.10121326893568039 0.07308225333690643 -0.13052913546562195 -0.10037194937467575 -0.04381068795919418 0.11871874332427979 0.09465662389993668
each -0.2655980587005615 -0.16063790023326874 -0.18551430106163025 0.03175864368677139 0.15547214448451996 0.28031155467033386 -0.6252716779708862 0.06264416128396988 -0.04556203633546829 -0.27306580543518066 0.04829157143831253 0.016384193673729897 -0.5560113787651062 0.13542413711547852 -0.04490809142589569 -0.12910395860671997 0.09903549402952194 -0.07958357781171799 0.3105311691761017 -0.09817394614219666 -0.05102413147687912 -0.06571903824806213 -0.1957436054944992 -0.19571366906166077 0.14119097590446472 -0.00429272698238492 -0.0435791090130806 -0.09307515621185303 -0.16024896502494812 -0.3137113153934479 0.0030950503423810005 0.3218221664428711 0.22563599050045013 -0.3599308729171753 0.008540880866348743 0.328887403011322 -0.1180766373872757 -0.024263210594654083 0.15157638490200043 0.37155264616012573 -0.12412387132644653 0.18954604864120483 -0.14069384336471558 0.24660025537014008 -0.3416821360588074 0.42712974548339844 -0.4736637473106384 0.14829102158546448 0.2438400238752365 0.06621886044740677 0.008642877452075481 0.1311831921339035 -0.5892521142959595 0.06245627626776695 -0.17388524115085602 -0.08436988294124603 0.19699499011039734 -0.10288935899734497 0.11171162873506546 -0.3587449789047241 0.05148090422153473 0.18126069009304047 -0.15663421154022217 -0.31612932682037354 -0.16577289998531342 -0.1430937647819519 0.18131695687770844 0.36297547817230225 0.10640960931777954 0.31104353070259094 0.08606050163507462 -0.350273072719574 -0.21582068502902985 0.033093322068452835 -0.0018576611764729023 -0.6479505896568298 0.26637986302375793 0.1614670306444168 0.07164789736270905 -0.13615533709526062 -0.1054721549153328 -0.07814843952655792 0.040697406977415085 0.20073507726192474 0.18547791242599487 -0.10062340646982193 -0.19397187232971191 -0.12595827877521515 0.2558731436729431 0.24359644949436188 -0.08824847638607025 -0.05950858071446419 0.24856600165367126 -0.019946161657571793 -0.25960490107536316 -0.34562885761260986 0.05704743415117264 -0.30348315834999084 -0.27915602922439575 0.09276048094034195
former -0.07957559823989868 -0.031282514333724976 0.02484062686562538 0.07488605380058289 0.010936341248452663 0.19509878754615784 0.037113867700099945 -0.09150972962379456 -0.09281443804502487 -0.031735461205244064 0.006885587237775326 0.14019788801670074 -0.10534537583589554 0.10587473213672638 -0.09926892071962357 -0.04496602341532707 0.13563315570354462 0.07051824778318405 0.038309644907712936 -0.09621827304363251 -0.11263083666563034 0.20535531640052795 0.004859123844653368 -0.08899348229169846 -0.07538684457540512 -0.023357803001999855 -0.07961524277925491 -0.08943011611700058 -0.0390140563249588 -0.13396838307380676 -0.13506551086902618 -0.05848681926727295 0.13960571587085724 -0.09656260162591934 -0.07058726996183395 0.04625999182462692 0.015628421679139137 -0.04880823567509651 -0.06958170235157013 -0.03129400685429573 0.0412856861948967 0.061737436801195145 -0.14867904782295227 0.03317670151591301 0.01590007171034813 0.09880489110946655 -0.10606857389211655 -0.017813580110669136 -0.01657160371541977 -0.11329159885644913 0.04590371996164322 -0.03971850499510765 -0.029792554676532745 0.036921337246894836 0.12435735762119293 -0.06638305634260178 0.0022580809891223907 -0.022439735010266304 -0.010381236672401428 0.021798251196742058 -0.005258205346763134 0.03640938177704811 -0.042342785745859146 0.03613138943910599 -0.028528975322842598 0.01460888423025608 0.08167677372694016 -0.012593420222401619 0.08016040176153183 -0.13368967175483704 0.0643237829208374 0.060721080750226974 -0.07579736411571503 0.08436614274978638 -0.07839227467775345 -0.019033581018447876 0.039356913417577744 0.012676261365413666 0.03568122908473015 0.09500949084758759 -0.028744257986545563 -0.03676954284310341 -0.10165814310312271 0.1717725694179535 0.09517425298690796 0.0484745055437088 0.00761068519204855 0.049537308514118195 0.05598677694797516 0.06579071283340454 -0.030297039076685905 -0.04277222603559494 -0.018966535106301308 -0.0068508535623550415 0.05476700887084007 0.0749516412615776 -0.034910984337329865 -0.017483947798609734 0.08095583319664001 -0.03320441022515297
as -0.06402319669723511 -0.05779194086790085 -0.18645533919334412 0.1304529458284378 -0.19891594350337982 0.06547469645738602 -0.10331545770168304 -0.4415819048881531 0.02182662859559059 0.18962199985980988 0.18488755822181702 -0.12535765767097473 -0.08822888135910034 -0.015113327652215958 0.38993704319000244 -0.2230411022901535 0.04797971993684769 -0.18309235572814941 -0.18032078444957733 -0.14910154044628143 -0.3524635136127472 0.20507502555847168 0.1339455097913742 -0.3602710962295532 -0.05783763900399208 -0.011937495321035385 0.2234317511320114 -0.06545612961053848 -0.3837396204471588 -0.2744482159614563 0.04829949885606766 0.22001400589942932 0.17436210811138153 -0.5362000465393066 -0.06478507071733475 0.08191283792257309 0.003289284650236368 -0.20568501949310303 0.3403359353542328 0.036420486867427826 0.19145722687244415 0.17126764357089996 -0.5799468159675598 -0.2699887454509735 -0.21213030815124512 -0.23028448224067688 0.07898706197738647 -0.17892800271511078 -0.0701383575797081 0.253260999917984 -0.01162195298820734 0.20236508548259735 -0.16451413929462433 -0.008182304911315441 0.13738474249839783 -0.03859260678291321 0.16366994380950928 -0.2363509237766266 0.41234061121940613 -0.038367100059986115 -0.1831127405166626 0.08637899160385132 0.3135431110858917 0.11718378961086273 0.09401924908161163 -0.13696421682834625 -0.10201846063137054 -0.28169405460357666 0.2974018454551697 0.33377206325531006 0.24423104524612427 0.29117950797080994 -0.178147092461586 0.35283857583999634 -0.2527528703212738 -0.05472198501229286 0.27901649475097656 0.030476056039333344 -0.04965250939130783 0.10662631690502167 0.18997272849082947 -0.3486335873603821 -0.21938271820545197 -0.34985190629959106 0.013276249170303345 0.41294005513191223 0.1898803561925888 0.07994012534618378 -0.056040048599243164 0.05292844399809837 -0.18108715116977692 0.05982537567615509 0.33182114362716675 -0.3347616493701935 0.22158509492874146 -0.07147932797670364 -0.4153723120689392 0.22278296947479248 0.32713431119918823 0.24928462505340576
at 0.09881016612052917 -0.0320914089679718 -0.10753338038921356 0.013513957150280476 0.17091283202171326 0.2014567255973816 -0.08442187309265137 0.13337650895118713 -0.19910867512226105 -0.31205737590789795 0.28334733843803406 0.2786766290664673 -0.3617784380912781 0.11935892701148987 -0.23624317348003387 -0.587343156337738 -0.004332427866756916 0.1389588862657547 0.30912965536117554 -0.29917892813682556 -0.06720400601625443 -0.11749424785375595 0.09706011414527893 -0.1582326740026474 0.2600359618663788 0.14011508226394653 -0.07562796026468277 0.14495810866355896 0.28223496675491333 -0.14712603390216827 -0.3074248135089874 0.030214546248316765 0.3018154203891754 -0.3267906904220581 -0.1508527249097824 -0.1879141926765442 0.12123677134513855 0.07676646113395691 -0.05018555745482445 0.16916915774345398 -0.07458522915840149 -0.050514690577983856 -0.6211071014404297 -0.01424227561801672 -0.37575000524520874 -0.17956022918224335 0.1414979249238968 -0.49780210852622986 0.42972469329833984 0.12619109451770782 -0.18401436507701874 0.01950475573539734 0.14981429278850555 0.11113692820072174 0.24996337294578552 -0.368178129196167 -0.06512442976236343 -0.021925577893853188 0.3493303656578064 0.1459551751613617 0.04992251843214035 0.22076241672039032 -0.060564976185560226 -0.12117713689804077 -0.24344269931316376 0.057735737413167953 0.334102600812912 -0.3903343677520752 0.09849004447460175 -0.18708065152168274 0.07008034735918045 0.014435769990086555 -0.39787837862968445 -0.08545295894145966 -0.5180216431617737 0.0120073352009058 0.48795047402381897 -0.2576890289783478 0.22980518639087677 -0.1836983561515808 0.07741907238960266 0.06164148449897766 -0.3881395757198334 0.2728036642074585 0.1711403727531433 0.19942091405391693 0.06276585161685944 0.36972489953041077 0.17666327953338623 0.07047361135482788 -0.08008979260921478 0.08356921374797821 0.13537634909152985 0.007924942299723625 0.17100585997104645 -0.32996276021003723 0.06588322669267654 0.0846850723028183 0.1966574788093567 -0.08632358908653259
left 0.10166887193918228 -0.10076220333576202 0.07304053008556366 -0.01512889377772808 -0.14147311449050903 0.3721540868282318 -0.04443252831697464 -0.19341419637203217 0.10405609011650085 0.05653864145278931 0.14965276420116425 0.41490820050239563 0.11920884996652603 0.25829434394836426 -0.2853066921234131 -0.1306169182062149 0.17962884902954102 0.011729705147445202 -0.11778996884822845 -0.24596595764160156 0.10732247680425644 0.2662579119205475 0.01637321151793003 -0.19524754583835602 -0.12042070180177689 -0.04524296149611473 -0.4827350974082947 0.1117081493139267 -0.1031925156712532 -0.2417254000902176 -0.35565677285194397 -0.22374770045280457 -0.031716831028461456 -0.15367497503757477 -0.046706367284059525 0.17267176508903503 -0.220267653465271 -0.04615452513098717 -0.2700985372066498 -0.1391112059354782 -0.04915337637066841 0.21394293010234833 0.014654885977506638 0.14283421635627747 -0.027587464079260826 0.021430999040603638 -0.41677162051200867 0.30205702781677246 0.25714534521102905 -0.2254057377576828 -0.1501380205154419 -0.2611638605594635 0.08387970179319382 0.1249736100435257 0.3099666237831116 0.070370152592659 0.18959325551986694 0.23526215553283691 0.023214951157569885 0.2005416601896286 -0.042090076953172684 -0.09227804839611053 0.15521951019763947 -0.02623986080288887 -0.09352482855319977 0.14136041700839996 -0.0032611796632409096 0.0762968361377716 -0.26572659611701965 0.06937967240810394 0.11483427882194519 0.05710821598768234 -0.09388264268636703 -0.19029495120048523 -0.14353439211845398 -0.002569132950156927 0.04498022794723511 0.1265966296195984 0.05869631841778755 0.16435933113098145 0.08377272635698318 0.10626929253339767 1.454753801226616E-4 0.46583378314971924 0.08616810292005539 0.22883561253547668 -0.06679192930459976 0.27814531326293945 -0.09293445944786072 0.0893564447760582 0.06155383214354515 0.191921204328537 -0.25716376304626465 -0.11207933723926544 0.08487939089536667 -0.2374909669160843 -0.08928278833627701 -0.03322024270892143 0.12827149033546448 -0.1309794783592224
much 0.262991726398468 0.4538644552230835 -0.11230558902025223 0.06684160232543945 -0.3082675039768219 0.3618675172328949 -0.2755836248397827 -0.18566250801086426 0.10042115300893784 -0.367573082447052 -0.4792599081993103 -0.07001291215419769 -0.302347332239151 -0.04590045288205147 0.3328604996204376 -0.2210707664489746 0.03255758434534073 -0.09426029771566391 0.08549751341342926 -0.6676425933837891 -0.020767321810126305 0.07116200029850006 -0.08266310393810272 -0.17264848947525024 0.23103012144565582 -0.026996472850441933 0.02335214428603649 -0.05214545130729675 -0.2575783133506775 0.19680479168891907 -0.13102039694786072 0.17799612879753113 0.011153250001370907 -0.4311286509037018 0.12394896894693375 0.37449735403060913 0.033491771668195724 -0.10234642028808594 0.05710088461637497 0.06466175615787506 -0.39393940567970276 0.6011067628860474 0.18886025249958038 0.06389785557985306 0.31950604915618896 -0.14359891414642334 -0.41675183176994324 0.016573235392570496 0.39397624135017395 -0.26585134863853455 -0.31678280234336853 -0.4151650667190552 -0.29362520575523376 -0.17439843714237213 -0.06024518609046936 0.1276322305202484 0.46422967314720154 -0.19489572942256927 -0.31085890531539917 -0.2527298331260681 -0.4547326862812042 0.029998354613780975 -0.2081308513879776 -0.0846591368317604 0.328859806060791 0.12179005891084671 0.22097644209861755 -0.23863205313682556 0.10977941751480103 -0.25635597109794617 0.3134140968322754 0.3531016707420349 0.3276068866252899 -0.14526671171188354 0.3498251438140869 0.010020491667091846 -0.34608691930770874 0.2506691813468933 -0.4087217152118683 0.143402561545372 -0.29779699444770813 -0.31875699758529663 0.15384279191493988 -0.5491382479667664 -0.03256817162036896 -0.02765347994863987 -0.05768844112753868 -0.03121269680559635 0.2916722595691681 0.21134939789772034 -0.45200103521347046 0.19517634809017181 -0.02920551225543022 -0.0364406518638134 0.13728927075862885 -0.2720778286457062 0.021166367456316948 0.30033987760543823 0.09097559750080109 -0.2822117209434509
be 0.04841792210936546 -0.241914302110672 -0.10164255648851395 0.3421846330165863 -0.20114056766033173 0.12682722508907318 -0.06920175999403 -0.45803508162498474 0.07100441306829453 0.021903146058321 -0.026336006820201874 0.2790044844150543 0.41726624965667725 0.16653065383434296 -0.0946180671453476 -0.14164786040782928 0.24560749530792236 0.3061973452568054 -0.01312444917857647 -0.02658974379301071 0.015110349282622337 -0.05617475509643555 -0.24884602427482605 -0.06531831622123718 0.15847401320934296 0.2852868437767029 -0.13010434806346893 -0.25191807746887207 -0.08358102291822433 -0.15359871089458466 -0.4146815240383148 0.13446785509586334 0.16811634600162506 0.08728766441345215 -0.017447706311941147 -0.031494103372097015 0.08726228028535843 -0.1566384732723236 0.03268743306398392 0.10431228578090668 -0.18233098089694977 0.20162712037563324 0.11723052710294724 0.09852565079927444 -0.22236764430999756 0.005685113370418549 -0.140047088265419 -0.20677685737609863 -0.09589438140392303 0.2802121043205261 0.10652855038642883 0.30995410680770874 -0.030370431020855904 -0.6770345568656921 0.16744086146354675 0.05555625632405281 -0.048217155039310455 0.09641911089420319 0.37773561477661133 -0.033148981630802155 -0.2799530327320099 0.1832580715417862 -0.23138980567455292 0.3257497549057007 -0.18146780133247375 -0.317952960729599 0.09377229958772659 -0.12219801545143127 -0.06239733844995499 0.09369182586669922 0.286355584859848 0.5268611311912537 0.030430316925048828 0.15986418724060059 -0.11754339933395386 0.025466520339250565 -0.029893673956394196 -0.1278887242078781 0.3686329424381256 0.08695153146982193 -0.03877074643969536 -0.39889436960220337 0.017228972166776657 0.19985660910606384 -0.2341061532497406 -0.18402409553527832 -0.12684981524944305 0.2366418093442917 -0.07164747267961502 0.6192904114723206 -0.25556132197380066 0.19128483533859253 -0.03344503045082092 -0.38200774788856506 -0.0027520088478922844 0.09000463783740997 -0.4269207715988159 0.07794439047574997 -0.0035251860972493887 0.16418272256851196
another -0.11411081999540329 0.23709183931350708 -0.2549284100532532 0.2693445682525635 0.1426471769809723 0.25975143909454346 -0.04208962246775627 -0.19199593365192413 0.15341313183307648 -0.05894093960523605 0.12830735743045807 0.1252681165933609 -0.24860191345214844 0.1534809023141861 -0.14507237076759338 0.06104663759469986 0.24611134827136993 -0.12059217691421509 -0.08018821477890015 -0.1531996876001358 -0.02419229969382286 0.1877385377883911 0.09651269018650055 -0.16943694651126862 0.03269156441092491 0.1639084815979004 -0.07204583287239075 -0.15135057270526886 0.08742695301771164 -0.05973125249147415 -0.06903185695409775 0.002873156452551484 0.11841259896755219 -0.2970063388347626 0.18071573972702026 -0.43640774488449097 0.04198557138442993 -0.13675494492053986 -0.1409159004688263 0.2008209079504013 0.21253035962581635 0.15730060636997223 -0.03624323755502701 0.23978106677532196 -0.023155080154538155 0.26471731066703796 -0.45036518573760986 0.1797822117805481 0.14490529894828796 -0.33006003499031067 -0.08671873807907104 0.1310768723487854 -0.21674560010433197 -0.014857078902423382 0.1104205995798111 -0.22239179909229279 -0.03880791366100311 0.1728537231683731 0.0881493091583252 -0.05173715204000473 -0.04845656454563141 -0.1193535253405571 -0.0887809544801712 -0.2797223925590515 0.2761298418045044 -0.3547435998916626 0.3532765209674835 -0.10264486074447632 0.06303728371858597 -0.1780671775341034 0.0603952519595623 0.1665366142988205 0.1293221414089203 -0.2897718548774719 -0.11033377796411514 -0.12751738727092743 0.1910945624113083 0.04656118154525757 0.14651666581630707 0.39999714493751526 -0.1854448765516281 -0.2441793829202652 -0.2928245961666107 0.18496419489383698 0.045659348368644714 0.10548777878284454 0.04084186628460884 0.10275951772928238 0.1112380400300026 0.22571814060211182 -0.21182024478912354 -0.0860089436173439 -0.20134000480175018 -0.1347106248140335 -0.20879963040351868 0.026271196082234383 -0.1186627745628357 0.01853925921022892 -0.292979896068573 0.267994225025177
two -0.47247594594955444 -0.29828697443008423 0.26706400513648987 0.07985025644302368 0.18726913630962372 0.5048759579658508 -0.10423154383897781 -0.21720273792743683 0.20767168700695038 0.3775708079338074 -0.060737963765859604 0.07652562111616135 -0.25380873680114746 -0.19252368807792664 -0.30767208337783813 -0.1553676277399063 0.08449548482894897 -0.16060322523117065 -0.048388052731752396 -0.156473770737648 -0.13151198625564575 0.26943159103393555 -0.28726279735565186 0.03434773534536362 0.09038808196783066 -0.007962629199028015 -0.18185114860534668 0.11468402296304703 -0.39658334851264954 -0.09693106263875961 -0.5359131693840027 -0.3089078664779663 0.1786774843931198 -0.20062203705310822 -0.2493702471256256 0.06261563301086426 -0.5647415518760681 -0.2435668706893921 -0.05609980225563049 0.08430275321006775 -0.06899894028902054 0.3300958573818207 0.17926667630672455 -0.12040124088525772 -0.3398512303829193 0.4312649667263031 -0.2758021652698517 0.5183582305908203 0.44358551502227783 -0.28665512800216675 -0.1851816326379776 -0.23219241201877594 -0.0621412992477417 0.03703607618808746 0.19063982367515564 -0.0943395346403122 0.291263610124588 0.3026575446128845 0.04456295818090439 0.14879095554351807 -0.1559196263551712 -0.17416074872016907 -0.3036431074142456 -0.1703675389289856 -0.2113868147134781 -0.24638086557388306 0.032437264919281006 0.04957996681332588 0.3716292381286621 0.29037997126579285 0.1852855235338211 -0.2440457046031952 -0.0018792081391438842 0.05542682111263275 0.008101959712803364 -0.4397817850112915 0.15983493626117706 -0.07341299951076508 0.11559488624334335 0.23318591713905334 -0.35760629177093506 -0.09084328263998032 0.06180940195918083 0.2818094789981842 0.10204581916332245 0.26944875717163086 -0.27765196561813354 0.17817892134189606 -0.08685576915740967 0.19502407312393188 -0.12754866480827332 0.12998756766319275 -0.2157854288816452 -0.22156251966953278 0.2610456049442291 0.05094337463378906 -0.19923058152198792 0.19927704334259033 -0.3227483034133911 0.01735042780637741
long -0.07402505725622177 0.09841518849134445 -0.19894370436668396 -0.14747090637683868 -0.36542385816574097 0.3905799090862274 0.3993849456310272 -0.8241043090820312 0.13043129444122314 0.062335047870874405 -0.014412559568881989 -0.13302472233772278 -0.3637232482433319 -0.03023340180516243 -0.17575706541538239 -0.25812482833862305 -0.20019131898880005 -0.1111079677939415 -0.7880172729492188 -0.8045847415924072 0.03382029011845589 0.46271100640296936 0.3099691569805145 -0.4033295512199402 0.2335592806339264 0.4031805098056793 -0.3052363395690918 -0.4924107789993286 -0.016820097342133522 0.2208922803401947 0.20438922941684723 0.0045670741237699986 0.2748519778251648 -0.6010571718215942 0.2863219082355499 -0.24019335210323334 -0.10305583477020264 0.02687821350991726 -0.2169407159090042 0.0936228558421135 -0.28621646761894226 0.1454094499349594 0.3322341740131378 0.24917472898960114 0.03129337355494499 -0.20062780380249023 -0.11420077085494995 -0.5602755546569824 0.20390291512012482 -0.6087079048156738 0.41668835282325745 -0.2044767588376999 0.07859275490045547 -0.19160951673984528 -0.12930108606815338 -0.11312878131866455 -0.1372421532869339 0.20194204151630402 -0.11968456953763962 0.09210934489965439 0.06066809967160225 -0.09820222109556198 -0.17798756062984467 0.23221445083618164 0.4730078876018524 -0.21656718850135803 0.4608824849128723 -0.4042627811431885 0.4235460162162781 -0.47888287901878357 0.2951975166797638 0.5776929259300232 0.11238152533769608 -0.33365529775619507 -0.17656902968883514 -0.027725422754883766 -0.06923186033964157 0.05033385381102562 -0.2451891303062439 0.3484360873699188 -0.585997998714447 -0.16651520133018494 -0.1506943553686142 -0.34881293773651123 0.17653116583824158 0.4163542687892914 -0.42164286971092224 0.16150973737239838 0.07139822095632553 0.3810449242591858 -0.1137317642569542 0.1481400728225708 0.23127368092536926 0.17465472221374512 0.10162282735109329 -0.4720228314399719 -0.03868459165096283 -0.030980635434389114 -0.07866675406694412 0.036754366010427475
how -0.11847788095474243 0.08844302594661713 0.07764370739459991 0.41549405455589294 -0.010299526154994965 0.197028249502182 -0.4769561290740967 -0.14849577844142914 -0.07374437153339386 -0.1966366022825241 0.04227070137858391 -0.3408763110637665 -0.03932133689522743 0.24595995247364044 0.28145694732666016 -0.4159815311431885 -0.1457982212305069 -0.024731790646910667 -0.06380683183670044 -0.2869448661804199 -0.28872692584991455 0.22937288880348206 -0.019437089562416077 -0.07621193677186966 0.29791027307510376 -0.1872757077217102 0.15488968789577484 0.10707919299602509 -0.4502142369747162 0.02626950666308403 -0.34465497732162476 0.36650633811950684 0.2180112898349762 0.08086249232292175 -0.10231206566095352 0.1896272897720337 -0.0017070586327463388 -0.2801503539085388 0.4026176333427429 0.29822617769241333 0.2960003614425659 0.28570106625556946 -0.21566571295261383 -0.4096166491508484 0.11994030326604843 0.1882476508617401 -0.002168643521144986 0.16499820351600647 -0.11242331564426422 5.331015563569963E-4 0.07631665468215942 0.18183667957782745 0.14980314671993256 0.3806239366531372 0.0858340859413147 -0.2018362432718277 0.2474612444639206 -0.03393702208995819 0.32119232416152954 -0.12923100590705872 -0.16291210055351257 0.3982139825820923 0.09033770114183426 -0.3257935047149658 0.3248729109764099 0.20850028097629547 0.21846731007099152 -0.05537410452961922 0.19348126649856567 0.42985591292381287 -0.0788765475153923 0.19549378752708435 0.052885524928569794 -0.054994381964206696 0.1323925405740738 -0.1420319676399231 0.03202424198389053 0.172565758228302 -0.18443770706653595 0.3500603139400482 0.21317899227142334 -0.20610719919204712 -0.16126404702663422 -0.5976566076278687 -0.3113381862640381 0.22636443376541138 0.24523469805717468 -0.049560774117708206 -0.17625552415847778 0.056199170649051666 -0.2772678732872009 -0.06937960535287857 0.3594554662704468 -0.29112333059310913 0.5655307769775391 -0.5107789039611816 -0.08540739119052887 -0.017102167010307312 0.16738520562648773 0.03234543651342392
into -0.09995704144239426 -0.0517033189535141 0.1721639484167099 0.08719845861196518 0.28035789728164673 0.1854875534772873 -0.3616284728050232 0.03599144145846367 -0.10274496674537659 0.059358201920986176 0.0902828574180603 -0.11486853659152985 -0.18206478655338287 -0.05114968866109848 -0.4235808551311493 -0.07789139449596405 0.051763296127319336 0.049850232899188995 -0.14489921927452087 -0.31464001536369324 -0.2193724364042282 0.10546363890171051 -0.06085735559463501 -0.29552581906318665 0.31583744287490845 -0.14631320536136627 -0.06136472150683403 0.15167655050754547 0.03379933536052704 0.11240027844905853 -0.0863591805100441 0.3975203335285187 0.1938537210226059 -0.053384341299533844 -0.047497861087322235 0.1387866884469986 -0.04271863400936127 -0.047921061515808105 -0.1448454111814499 0.15924172103405 0.3036021590232849 -0.02642611227929592 -0.42759597301483154 0.12875179946422577 -0.05781953036785126 0.11930616199970245 0.03055478073656559 -0.08617052435874939 -0.19760005176067352 -0.10503581166267395 -0.08402302116155624 -0.2914205491542816 -0.046032749116420746 0.022029459476470947 0.20201274752616882 -0.6110131740570068 0.38026246428489685 -0.07752368599176407 0.27092403173446655 0.17238959670066833 -0.08546015620231628 0.14948362112045288 -0.11974093317985535 -0.05368271842598915 0.23133674263954163 0.1371200531721115 -0.041151925921440125 -0.20951974391937256 -0.08369790017604828 0.026663729920983315 -0.14212679862976074 -0.043070171028375626 0.16091318428516388 0.08012259751558304 8.472523768432438E-5 0.19464920461177826 -0.06421320885419846 0.04703783243894577 -0.16698820888996124 0.07267697155475616 0.06458956003189087 -0.22723866999149323 -0.331493616104126 -0.19019214808940887 -0.16919580101966858 0.20992466807365417 -0.026106122881174088 0.18989165127277374 0.29029807448387146 0.24297812581062317 -0.09087372571229935 -0.1252930909395218 -0.03281368687748909 -0.19727350771427155 0.021481627598404884 -0.27494126558303833 -0.2817976176738739 0.11206656694412231 0.061234548687934875 -0.009308472275733948
see 0.16256289184093475 -0.01728406548500061 -0.08542826771736145 -0.06289234757423401 0.4726788401603699 0.06800460815429688 -0.322815477848053 -0.3869781792163849 0.04663797840476036 -0.07156164944171906 -0.14904411137104034 -0.13975076377391815 0.41949185729026794 0.1693541556596756 -0.1382768601179123 0.16918374598026276 0.16818968951702118 0.10767801105976105 -0.056785859167575836 -0.5686507225036621 0.09642797708511353 0.3386497497558594 -0.11018592864274979 -0.0058774081990122795 0.21210668981075287 0.15430687367916107 -0.09809046983718872 -0.10500160604715347 -0.1445370465517044 0.10334497690200806 -0.01848844811320305 0.21359041333198547 0.12106620520353317 0.1600997895002365 -0.06952293962240219 0.20129625499248505 -0.19945605099201202 -0.2941821813583374 -0.0576474592089653 0.033851854503154755 -0.007653540000319481 -0.15528395771980286 -0.11884560436010361 0.05981535091996193 -0.0974244475364685 0.30017897486686707 -0.3167119026184082 0.016241405159235 0.20394442975521088 -0.06268813461065292 -0.13244657218456268 0.03424867242574692 -0.21061880886554718 -0.2517790198326111 0.09613047540187836 -0.27116021513938904 0.381752610206604 -0.3498457372188568 0.42202165722846985 -0.20454052090644836 -0.3063615560531616 0.20698966085910797 0.11269855499267578 -0.05330423265695572 -0.1873115450143814 -0.17320549488067627 0.06156717240810394 -0.24060484766960144 -0.13950368762016296 -0.09821842610836029 -0.05714947730302811 0.1491200029850006 0.13352882862091064 0.01703747920691967 0.06568103283643723 0.11371500045061111 0.10525598376989365 -0.23677566647529602 -0.13361799716949463 -0.3001997172832489 0.0970803052186966 -0.2753159701824188 -0.1780073195695877 0.08286438882350922 -0.2704799175262451 0.505093514919281 0.2415536493062973 0.2520524561405182 0.005514967255294323 0.13078132271766663 -0.07830821722745895 0.3404529094696045 0.023001916706562042 -0.12587958574295044 -0.19618594646453857 -0.3101080060005188 -0.24503445625305176 0.15817666053771973 0.12817569077014923 -0.00437539117410779
same -0.3522721529006958 -0.021711666136980057 -0.376214861869812 0.30697640776634216 -0.2524956464767456 0.331691712141037 0.07412157207727432 -0.4688756763935089 0.06772232800722122 0.04307950660586357 -0.23226185142993927 0.49023520946502686 -0.1502077579498291 0.019670285284519196 -0.2278469353914261 0.057786066085100174 0.014679362066090107 0.36728155612945557 -0.07591310143470764 -0.2246849536895752 -0.11192246526479721 0.32042261958122253 0.05519048869609833 -0.07718798518180847 -0.11021416634321213 0.27905339002609253 -0.2695779502391815 -0.33516573905944824 -0.15133541822433472 -0.45494258403778076 -0.6601805686950684 0.2748199999332428 -0.2246434986591339 -0.10072553157806396 0.06891842186450958 -0.3385979235172272 -0.0911044254899025 0.07132378965616226 -0.2634241580963135 -0.32387009263038635 0.21618002653121948 -0.09598811715841293 -0.34906595945358276 -0.08694330602884293 0.29735106229782104 -0.0010577223729342222 0.033137425780296326 0.13873785734176636 -0.04786939173936844 -0.03374003991484642 -0.14637215435504913 0.0018224328523501754 0.2641254663467407 0.004504943732172251 0.3217107653617859 -0.16491203010082245 0.03384453058242798 -0.15577185153961182 -0.11760935932397842 0.18873390555381775 -0.01803712360560894 0.1530601978302002 0.14031405746936798 -0.22352257370948792 -0.10581129789352417 -0.2814342677593231 0.04787181690335274 0.1717805713415146 0.26358649134635925 -0.44641634821891785 0.07650557160377502 0.06125788763165474 0.0138749610632658 0.21200031042099 -0.2639102339744568 -0.09574314951896667 0.3462870717048645 -0.24826833605766296 0.1973564475774765 0.30566826462745667 0.4450831115245819 -0.328279972076416 -0.4248819649219513 0.3623043894767761 0.2785218358039856 0.4126174747943878 0.22527699172496796 0.307365745306015 0.03380154073238373 0.23597626388072968 -0.15722042322158813 0.0955502986907959 -0.03125930577516556 0.08005570620298386 0.09140633046627045 0.2674294710159302 -0.27911028265953064 0.040390849113464355 0.2940482199192047 -0.21610024571418762
found 0.23601588606834412 -0.16660477221012115 -0.2496250569820404 -0.010914687067270279 -0.05709663778543472 0.4040958285331726 -0.3351607918739319 -0.4110192656517029 -0.12559108436107635 0.17153529822826385 0.08127717673778534 0.11073510348796844 0.11803077906370163 0.40193280577659607 -0.2939063310623169 -0.08847418427467346 0.305393785238266 0.12682950496673584 0.03681185096502304 -0.24302589893341064 -0.20919731259346008 0.1332104206085205 -0.03162949159741402 -0.3653179705142975 -0.0994572639465332 -0.1621846854686737 -0.46885374188423157 0.18522806465625763 -0.1772688776254654 -0.30118033289909363 -0.08952538669109344 0.1356479823589325 -0.046062931418418884 -0.10121303796768188 0.07006334513425827 0.22087030112743378 -0.0958072766661644 -0.04603840783238411 -0.0027945279143750668 -0.04464854672551155 -0.269095242023468 0.2035108506679535 0.07258269190788269 0.40732234716415405 0.14944005012512207 -0.01935974322259426 -0.2517191767692566 0.14339448511600494 0.18958427011966705 -0.1296471208333969 0.030100222676992416 -0.32121819257736206 0.10164476186037064 0.009969116188585758 0.4254382252693176 -0.09767434000968933 0.03301464021205902 -0.0029470629524439573 -0.018126970157027245 0.10281718522310257 -0.030773377045989037 0.028633393347263336 0.10202373564243317 0.12619003653526306 0.02269681915640831 0.21199557185173035 0.09319048374891281 -0.11926987022161484 -0.024577027186751366 -0.2735426723957062 -0.1277683675289154 0.2623659670352936 -0.01173914223909378 -0.4944169819355011 -0.1916494071483612 0.13196280598640442 0.15863622725009918 0.19898921251296997 -0.0020595653913915157 0.16645866632461548 -0.0636247843503952 0.0339789018034935 -0.14849045872688293 0.33397170901298523 -0.027707340195775032 0.1272735893726349 -0.07051792740821838 3.4580123610794544E-4 -0.10343200713396072 0.09440077841281891 0.13204635679721832 0.011385718360543251 0.03526967391371727 -0.17155665159225464 -0.18735700845718384 -0.32312268018722534 -0.07653408497571945 -0.11954712867736816 -0.07620333880186081 0.1708303987979889
are 0.020095013082027435 0.3153192400932312 -0.2586037814617157 0.34565892815589905 -0.26679375767707825 0.08926863968372345 -0.3918618857860565 -0.2450026422739029 0.7003173828125 -0.42051073908805847 -0.2581489682197571 0.08697264641523361 0.02739809826016426 0.0940542072057724 0.20647604763507843 -0.00734924990683794 -0.30585575103759766 -0.02737903594970703 0.2027926743030548 -0.6253396272659302 0.34671974182128906 0.03423551842570305 -0.012917209416627884 0.007678709924221039 0.12017162889242172 0.14116108417510986 -0.13787531852722168 0.005356865003705025 -0.3966876268386841 0.2532392740249634 -0.07170656323432922 -0.0100096445530653 0.40715059638023376 0.057917043566703796 -0.5829690098762512 0.36531516909599304 0.09374290704727173 0.06457497924566269 -0.04386037215590477 -0.4708245098590851 0.3322136700153351 0.04718557745218277 0.19162216782569885 0.41671743988990784 0.27299073338508606 -0.0062621403485536575 -0.22587762773036957 0.21968822181224823 -0.05372240021824837 0.18693244457244873 -0.24334688484668732 0.4156716465950012 -0.17503255605697632 -0.3002814054489136 0.02584203891456127 -0.43054714798927307 0.2914023995399475 0.09774651378393173 0.5288344025611877 -0.03172726929187775 0.21133771538734436 0.17779454588890076 -0.12316238880157471 -0.0567735880613327 -0.2388560175895691 -0.08349240571260452 0.17126166820526123 0.18761874735355377 -0.3370882570743561 0.24082225561141968 0.12881986796855927 -0.05493493750691414 -0.17926190793514252 0.08161362260580063 0.1598760485649109 -0.3672789931297302 -0.28175193071365356 -0.13484875857830048 0.05705749988555908 -0.04320176690816879 0.4914516806602478 0.14094646275043488 0.18855828046798706 0.4476264715194702 0.16895020008087158 0.26002761721611023 -0.4365185797214508 0.18019020557403564 0.2537074089050293 -0.058148205280303955 -0.047850966453552246 0.20551066100597382 0.354498028755188 0.04276304692029953 -0.5134528875350952 -0.2548425793647766 0.01961829885840416 0.06555444002151489 -0.055547572672367096 0.23543894290924072
does 0.659252941608429 0.39846357703208923 0.14111286401748657 0.5670140981674194 -0.13127462565898895 0.13440579175949097 0.08530422300100327 0.15032869577407837 -0.514204204082489 -0.23727215826511383 -0.45822134613990784 -0.25591614842414856 0.01158950012177229 0.3822588622570038 -0.3861079514026642 -0.14045239984989166 0.08661598712205887 -0.17103224992752075 0.06958281993865967 -0.4467080235481262 -0.164611354470253 0.0909329429268837 -0.05352606251835823 0.11139717698097229 0.47057244181632996 -0.15823836624622345 0.23861989378929138 -0.1731223315000534 -0.0888998731970787 -0.03474528715014458 -0.056182119995355606 0.0507127121090889 -0.06313580274581909 -0.19499023258686066 -0.18885158002376556 -0.020216457545757294 0.04070327430963516 -0.14386233687400818 -0.2571093738079071 0.7205866575241089 -0.03563409298658371 0.18719716370105743 -0.25601375102996826 0.22430174052715302 -0.18233856558799744 0.352435827255249 -0.782170832157135 0.45484089851379395 -0.23194631934165955 0.10416145622730255 0.21934998035430908 -0.203826442360878 -0.13863424956798553 0.11420648545026779 0.4954023063182831 -0.10690366476774216 0.15660357475280762 0.21383656561374664 0.10959989577531815 0.15039457380771637 0.02150389552116394 0.33660557866096497 0.05811138451099396 0.2857131361961365 -0.00784718431532383 0.5309558510780334 -0.017664730548858643 -0.8355078101158142 -0.276701420545578 -0.01186779048293829 0.10313428938388824 -0.16907861828804016 -0.19052495062351227 0.22207775712013245 -0.016348261386156082 -0.055549971759319305 0.04091043770313263 0.45962318778038025 0.1267928034067154 -0.03250725194811821 -0.10689855366945267 -0.21535566449165344 -0.37236276268959045 -0.24940308928489685 -0.02144349366426468 0.25132352113723755 -0.0636315867304802 0.1897030770778656 -0.1563083380460739 0.08552419394254684 -0.015565220266580582 -0.1078350767493248 0.12426387518644333 0.5354333519935608 0.16692613065242767 -0.23224861919879913 -0.04067865386605263 -0.25740253925323486 -0.06892121583223343 0.23396335542201996
by -0.31328776478767395 0.016234155744314194 -0.0757264494895935 0.15032704174518585 0.17370538413524628 0.19124919176101685 -0.09067366272211075 -0.2342938482761383 0.1641189008951187 -0.02891724742949009 0.15666092932224274 -0.08584431558847427 -0.13624735176563263 0.1725974828004837 -0.3745937943458557 -0.30860456824302673 0.15524496138095856 -0.0711945965886116 -0.017333652824163437 -0.3808406889438629 -0.017331115901470184 0.19033290445804596 -0.005736582446843386 -0.10860227793455124 0.15604542195796967 0.03210420161485672 -0.2249683141708374 0.005038367118686438 -0.17978344857692719 0.11845295876264572 -0.09811991453170776 -0.06054655462503433 0.12717969715595245 0.14522938430309296 0.01479761116206646 -0.11172626167535782 -0.032120101153850555 0.03702390938997269 -0.16373927891254425 0.05109813064336777 0.15576055645942688 0.04119577258825302 -0.12304268777370453 0.2635813355445862 -0.010966408997774124 0.07410977780818939 -0.0242905393242836 -0.030751792713999748 0.03415824472904205 -0.0854107216000557 -0.2538178265094757 -0.17680172622203827 -0.03180202096700668 0.13180500268936157 0.17947688698768616 -0.3173336684703827 0.19637490808963776 -0.08182114362716675 0.27853068709373474 0.12184862792491913 0.1402510702610016 -0.22105854749679565 -0.005112800747156143 -0.10761990398168564 0.08262575417757034 -0.05549493432044983 0.30488041043281555 -0.21135202050209045 -0.11405350267887115 -0.20161885023117065 0.08625663816928864 0.0963171124458313 -0.003259556135162711 -0.12622006237506866 -0.3296230435371399 0.09749483317136765 0.22564806044101715 -0.1716614067554474 0.2525367736816406 -0.03657197207212448 0.0702674612402916 -0.13432250916957855 -0.2536994516849518 0.16448120772838593 -0.013173654675483704 0.23227709531784058 0.044382043182849884 0.3482230007648468 0.081984743475914 0.10457853972911835 0.0706108883023262 -0.008328821510076523 -0.07738179713487625 -0.2654045522212982 -0.09641660749912262 0.07634012401103973 -0.1341639757156372 0.25836464762687683 0.020669864490628242 0.1521538347005844
national -0.1302594691514969 0.01499694399535656 -0.03661157563328743 0.11493454873561859 -0.008743876591324806 0.20827853679656982 -0.12097491323947906 -0.21629902720451355 -0.029880434274673462 -0.13343609869480133 0.06026075780391693 0.15602286159992218 -0.13720674812793732 0.07949934899806976 -0.08663827180862427 -0.0682714581489563 0.05211126059293747 0.10518426448106766 -0.0591464638710022 -0.22870859503746033 -0.10298449546098709 0.18906602263450623 -0.03608321025967598 -0.17118646204471588 -0.004213540814816952 0.014285420067608356 -0.0632220134139061 -0.1599370390176773 -0.09128764271736145 -0.14462226629257202 -0.1806296557188034 0.07775251567363739 0.1780787706375122 -0.1410580724477768 -0.0899878740310669 0.07434587180614471 -0.009579796344041824 -0.05216417461633682 -0.06390619277954102 0.01821563020348549 0.1134418398141861 0.0558781623840332 -0.17946654558181763 0.04371461644768715 0.03309415280818939 0.08652500063180923 -0.12197552621364594 -0.07355081290006638 -0.0016576503403484821 -0.0806007832288742 0.02562442608177662 -0.05343134328722954 -0.05919706076383591 -0.032648853957653046 0.08545728027820587 -0.14551010727882385 0.12967491149902344 -0.018626265227794647 0.08292732387781143 0.027488354593515396 -0.037106022238731384 0.034474052488803864 -0.07200860977172852 -0.013080216944217682 -0.07629693299531937 -0.0634688138961792 0.14378570020198822 0.004098578356206417 0.0026474427431821823 -0.08521413058042526 0.1057700589299202 0.09825221449136734 -0.072195865213871 0.08676043897867203 -0.08555188775062561 -0.03277619555592537 0.0018417318351566792 0.016668282449245453 0.022763466462492943 0.09252192825078964 -0.049907274544239044 -0.10370106995105743 -0.1342761218547821 0.10005160421133041 0.040176764130592346 0.1154799535870552 -0.0010283691808581352 0.09668996185064316 0.1323809027671814 0.059597454965114594 -0.09425410628318787 -0.024937087669968605 0.0216069258749485 -0.06067072972655296 0.010100390762090683 -0.02972886711359024 -0.08747784793376923 0.003113423939794302 0.1715937852859497 -0.04724855720996857
where -0.3450010120868683 -0.0461370013654232 -0.10934637486934662 0.17093563079833984 0.5256513953208923 0.2094741314649582 -0.5218409895896912 0.1261463612318039 0.051537349820137024 -0.044253069907426834 -0.2648094892501831 -0.16140732169151306 -0.2766963243484497 0.07237400114536285 -0.24705061316490173 -0.2149083912372589 -0.07714894413948059 0.39900073409080505 -0.052382826805114746 -0.3583133816719055 -6.554284482263029E-4 0.4247799217700958 -0.15760888159275055 -0.41209283471107483 0.4908089339733124 0.23332087695598602 -0.05258684977889061 -0.043338850140571594 0.0126646738499403 -0.09474702179431915 -0.20574213564395905 0.0876045674085617 0.24344497919082642 0.38153427839279175 0.18654830753803253 0.06244989112019539 -0.2763741910457611 -0.06979341059923172 0.2767481803894043 0.10051711648702621 0.24498042464256287 0.10983453691005707 0.006959239952266216 0.11418270319700241 0.2323393076658249 0.09129548817873001 0.08705051243305206 -0.32495608925819397 -0.5239019989967346 -0.2828057110309601 0.1642524003982544 -0.09778964519500732 0.36711642146110535 0.42579779028892517 -0.006858035922050476 -0.44132882356643677 0.12795297801494598 -0.2923159897327423 -0.040770307183265686 -0.2919738292694092 0.07062854617834091 -0.10516157001256943 0.10857636481523514 -0.36378270387649536 0.4014369547367096 0.3087211549282074 0.5522677898406982 0.17537996172904968 0.0457112193107605 0.42876294255256653 -0.20697596669197083 -0.16339051723480225 -0.004341423977166414 -0.01580461859703064 -0.5120928883552551 0.027666302397847176 -0.1543261706829071 0.16454418003559113 0.08621758967638016 0.33346444368362427 0.2673565745353699 -0.0780668780207634 -0.2326187789440155 -0.17501243948936462 0.17023365199565887 0.3306792378425598 -0.052560362964868546 0.14994755387306213 -0.10998579859733582 0.240320086479187 -0.4455268681049347 -0.009120709262788296 0.435366153717041 -0.2729254364967346 -0.026201028376817703 -0.31051236391067505 -0.10905691236257553 -0.16427774727344513 -0.10861008614301682 -0.24367332458496094
after -0.0974791869521141 0.14945608377456665 0.15333974361419678 -0.13800401985645294 0.1623978465795517 0.2110021710395813 0.027259841561317444 0.26149410009384155 -0.18405430018901825 0.231271892786026 0.2512722313404083 0.15692493319511414 -0.2795158326625824 0.3395817279815674 -0.35177984833717346 -0.25109344720840454 0.09745942801237106 0.04882398620247841 0.11301657557487488 -0.3988756239414215 0.11711635440587997 0.08302953839302063 0.08894480019807816 0.062267109751701355 0.09803317487239838 -0.038885291665792465 -0.27163124084472656 0.009677145630121231 -0.16315338015556335 0.1673155277967453 -0.19751788675785065 -0.09668179601430893 0.24612295627593994 0.05474041774868965 -0.16350051760673523 -0.13366997241973877 -0.09195201098918915 -0.29435595870018005 -0.20807991921901703 0.039041873067617416 0.10850536078214645 -0.1157560646533966 -0.23858024179935455 -0.007709054742008448 -0.15178745985031128 -0.0013770641526207328 -0.044105302542448044 -0.3019115626811981 0.049247436225414276 0.05314924940466881 -0.2414024919271469 -0.030115103349089622 0.23903919756412506 0.1279451996088028 0.06956619024276733 -0.5851801037788391 0.2230488806962967 0.2505030035972595 0.17094449698925018 0.04176465421915054 0.05472452938556671 -0.014345133677124977 -0.13819576799869537 -0.13512647151947021 -0.23496419191360474 -0.17441952228546143 0.3270101249217987 -0.10703469067811966 0.12988297641277313 -0.07283103466033936 0.012694591656327248 0.03447674214839935 0.08689513057470322 -0.14436982572078705 -0.2663280963897705 0.18980509042739868 0.014040201902389526 -0.2565293312072754 0.19584719836711884 -0.1072014644742012 0.17489108443260193 0.044236186891794205 -0.39842674136161804 0.27813178300857544 0.10657751560211182 0.24123281240463257 0.03749627247452736 0.26166582107543945 -0.13507580757141113 0.08320257812738419 0.16401566565036774 0.18522797524929047 -0.15647077560424805 -0.2028406411409378 -0.046712230890989304 -0.13947837054729462 -0.12803566455841064 0.1917848289012909 -0.013821047730743885 -0.04959849640727043
so -0.03474435210227966 -0.08663064986467361 0.07509397715330124 0.19894210994243622 0.1320423036813736 0.06849681586027145 -0.1456441730260849 -0.12563195824623108 0.08344412595033646 -0.09366118907928467 0.054935090243816376 -0.05702346935868263 0.16769272089004517 0.14652296900749207 0.24291999638080597 -0.04619479551911354 -0.10399378091096878 -0.10983306169509888 -0.31470537185668945 -0.16781212389469147 0.24956275522708893 0.39772045612335205 0.20053046941757202 -0.2629188001155853 0.04738637059926987 0.015758875757455826 0.12598589062690735 -0.06301169842481613 -0.3966323435306549 -0.24745094776153564 -0.16168642044067383 0.0040977513417601585 0.31120094656944275 -0.2764296531677246 0.012445591390132904 0.31513023376464844 -0.10810235142707825 -0.08360722661018372 -0.03556443378329277 -0.07652024924755096 0.019638914614915848 -0.10468222200870514 -0.23082546889781952 -0.4069654941558838 0.030981509014964104 0.1851205825805664 -0.37583234906196594 0.25468629598617554 0.19825677573680878 -0.01117847952991724 -0.2026020735502243 0.10298415273427963 0.1278233677148819 0.3446885943412781 0.31658852100372314 0.11907950788736343 0.21415261924266815 0.017385251820087433 0.162034273147583 -0.10388006269931793 -0.17738761007785797 0.11221416294574738 0.3253052830696106 -0.08647714555263519 0.19436615705490112 0.14647868275642395 -0.04639878869056702 -0.2120848298072815 -0.25232312083244324 0.40974560379981995 0.24950161576271057 0.06968636065721512 0.15418240427970886 0.23172636330127716 -0.2127775102853775 0.09208013117313385 0.014720522798597813 0.003611696418374777 -0.21474222838878632 0.2350534051656723 0.20664352178573608 -0.05657956004142761 0.10576599836349487 0.26725104451179504 0.20382562279701233 0.37433743476867676 0.2881840467453003 0.35219016671180725 -0.1919715702533722 0.0021768519654870033 -0.16318252682685852 0.06531862914562225 0.21867772936820984 -0.05161341652274132 0.21465742588043213 -0.4472072422504425 -0.16871686279773712 0.08519109338521957 0.31201520562171936 0.178738534450531
a 0.008086293935775757 0.2179291695356369 -0.2866622805595398 0.24309271574020386 -0.1715487390756607 -0.049495916813611984 0.5184781551361084 -0.0855034589767456 0.034066032618284225 -0.10474734008312225 0.0890902653336525 0.12109505385160446 -0.14586837589740753 -0.11346276104450226 -0.1427411437034607 -0.08107413351535797 -0.26868486404418945 -0.15181761980056763 -0.1838482767343521 -0.25728800892829895 -0.3319492042064667 0.1675792634487152 0.12152392417192459 -0.06493887305259705 -0.11486584693193436 0.08428997546434402 -0.21680907905101776 -0.03293196111917496 -0.17917566001415253 -0.1353711634874344 -0.23217853903770447 -0.18707364797592163 0.39901411533355713 -0.2709045708179474 0.16843782365322113 -0.2794851064682007 0.497577428817749 0.03763163089752197 0.08913349360227585 0.3073815405368805 0.11671118438243866 0.22502925992012024 -0.26700443029403687 -0.20285233855247498 0.14686259627342224 0.23728369176387787 -0.2687503397464752 0.39662498235702515 0.3130019009113312 -0.34767234325408936 -0.02984805218875408 0.26820608973503113 -0.6330569386482239 0.11587810516357422 -0.20411209762096405 0.06009487062692642 0.07754131406545639 -0.01847228966653347 0.273473858833313 -0.04202929139137268 -0.1728198528289795 -0.017011692747473717 -0.1863061487674713 -0.17802493274211884 0.2437693029642105 -0.1351860910654068 0.03767604008316994 0.1761145144701004 -0.2263476550579071 -0.2826662063598633 0.2067483514547348 0.40132030844688416 0.06857994943857193 -0.29215532541275024 0.16552820801734924 0.06115470454096794 0.19779369235038757 -0.03219610080122948 0.05397782474756241 0.08328274637460709 0.11964288353919983 -0.05422345548868179 -0.30829593539237976 0.2493739277124405 -0.04703817516565323 0.32156088948249817 0.22504578530788422 0.38117465376853943 0.23339074850082397 0.24880558252334595 -0.0454537570476532 -0.3973422348499298 0.053590916097164154 -0.5299350023269653 0.1799669712781906 0.06379793584346771 -0.12056039273738861 0.04906107485294342 0.013504734262824059 0.5206807851791382
think 0.24237030744552612 -0.03054341860115528 -0.35093504190444946 0.3416777551174164 0.12051664292812347 0.14803344011306763 -0.09059291332960129 -0.2955961525440216 -0.1515006572008133 -0.2637689411640167 0.07182517647743225 -0.04146239906549454 0.28838491439819336 -0.21418391168117523 -0.29738983511924744 -0.021593362092971802 0.013481905683875084 -0.01366492547094822 0.03688066452741623 -0.39759016036987305 -0.0893174260854721 0.21552151441574097 -0.08869767934083939 -0.2480303794145584 -0.04537753015756607 0.5507706999778748 -0.010747909545898438 0.075526662170887 -0.11850258708000183 -0.3120758831501007 -0.6305648684501648 0.44047078490257263 0.18631905317306519 -0.07303179800510406 0.02634238265454769 0.2722625434398651 0.00843038409948349 -0.2433718740940094 -0.07732044905424118 0.15654142200946808 0.05540483072400093 0.12822894752025604 0.03927365317940712 -0.13039599359035492 -0.025038734078407288 0.019824910908937454 -0.01524138543754816 -0.15371353924274445 0.62950199842453 -0.022004343569278717 -0.0072723994962871075 -0.2258826494216919 0.05539042875170708 -0.1988588124513626 -0.13904878497123718 -0.13089996576309204 0.19349873065948486 0.138593390583992 -0.023724548518657684 -0.3238343596458435 -0.1780746430158615 0.12031442672014236 0.05358134210109711 -0.36608466506004333 -0.4011789560317993 -0.06660978496074677 0.22630585730075836 0.12272702157497406 0.11123321205377579 0.01061233226209879 -0.2578285336494446 0.16888298094272614 0.34873172640800476 -0.07439357787370682 -0.3479163944721222 0.1323176771402359 -0.05230724439024925 0.20032525062561035 0.057906657457351685 -0.06697408854961395 0.21155515313148499 0.18253393471240997 -0.14751319587230682 0.07852864265441895 -0.11915181577205658 0.1273033618927002 0.1949024796485901 0.2221759855747223 -0.21955667436122894 -0.030819257721304893 -0.2526452839374542 0.3583172559738159 0.2551065981388092 -0.19315162301063538 0.11982156336307526 -0.4029424786567688 -0.34731316566467285 0.19896134734153748 0.30131858587265015 -0.22155915200710297
set 0.0953943207859993 -0.0865773856639862 -0.011150545440614223 0.09052759408950806 0.14242437481880188 0.15163542330265045 -0.43063610792160034 -0.2828766703605652 -0.11101613193750381 -0.030887547880411148 0.16493307054042816 0.2371784895658493 0.02635219506919384 0.03250006586313248 -0.2785749137401581 -0.15167294442653656 -0.005853862036019564 0.28033992648124695 -0.20281395316123962 -0.44707661867141724 0.032994288951158524 0.080301932990551 0.02595774456858635 -0.25459524989128113 0.007727698422968388 -0.054592713713645935 -0.1192014068365097 0.04907592386007309 -0.10033833980560303 0.026558097451925278 -0.17133356630802155 0.13022111356258392 0.261039137840271 -0.23701788485050201 -0.04218333959579468 0.12134461104869843 -0.08787287771701813 0.025335643440485 -0.01470248680561781 -0.010488961823284626 -0.06917327642440796 0.06158991530537605 -0.09152606129646301 0.07588137686252594 0.3001766800880432 -0.14295059442520142 -0.16555216908454895 -0.21795913577079773 0.1380949318408966 -0.23677338659763336 0.04086893051862717 -0.217254638671875 0.12335963547229767 -0.07375774532556534 0.3371817469596863 -0.31775572896003723 0.34439536929130554 0.12027855217456818 0.06855836510658264 0.1714799851179123 -0.14123228192329407 0.12450633198022842 0.0028471725527197123 0.04588989168405533 -0.13528813421726227 0.06693670898675919 0.01654898375272751 0.05760038271546364 -0.068256676197052 -0.07106143236160278 0.038078200072050095 0.20131489634513855 -0.11483896523714066 -0.1160668358206749 -0.032375212758779526 0.13889463245868683 -0.009842270985245705 0.13995566964149475 -0.0829402506351471 0.036414604634046555 -0.22747854888439178 -0.1063816100358963 -0.10202103853225708 0.11888045817613602 -0.14707091450691223 0.10555543005466461 -0.030561823397874832 0.26658281683921814 0.07452274858951569 0.12123827636241913 -0.007023928686976433 0.11695941537618637 0.06348258256912231 -0.08619161695241928 -0.10948237776756287 -0.22650741040706635 0.059901025146245956 0.05053907260298729 0.18779341876506805 -0.12723509967327118
